{"learner":{"attributes":{"scikit_learn":"{\"_estimator_type\": \"regressor\"}"},"feature_names":["time_diff_estimate","engine_class_int"],"feature_types":["float","float"],"gradient_booster":{"model":{"gbtree_model_param":{"num_parallel_tree":"1","num_trees":"100"},"iteration_indptr":[0,1,2,3,4,5,6,7,8,9,10,11,12,13,14,15,16,17,18,19,20,21,22,23,24,25,26,27,28,29,30,31,32,33,34,35,36,37,38,39,40,41,42,43,44,45,46,47,48,49,50,51,52,53,54,55,56,57,58,59,60,61,62,63,64,65,66,67,68,69,70,71,72,73,74,75,76,77,78,79,80,81,82,83,84,85,86,87,88,89,90,91,92,93,94,95,96,97,98,99,100],"tree_info":[0,0,0,0,0,0,0,0,0,0,0,0,0,0,0,0,0,0,0,0,0,0,0,0,0,0,0,0,0,0,0,0,0,0,0,0,0,0,0,0,0,0,0,0,0,0,0,0,0,0,0,0,0,0,0,0,0,0,0,0,0,0,0,0,0,0,0,0,0,0,0,0,0,0,0,0,0,0,0,0,0,0,0,0,0,0,0,0,0,0,0,0,0,0,0,0,0,0,0,0],"trees":[{"base_weights":[5.1856695E-8,-3.0550683E0,3.2046132E0,-3.9056447E0,-1.1180688E0,1.472877E0,4.049529E0,1.8151796E-1,-4.7145658E0,-1.9701314E0,-6.572548E-1,8.132404E-1,2.0921216E0,3.2710268E0,4.2300982E0,1.0594995E0,-1.1327548E0,-5.5037622E0,-3.6282816E0,-2.2695704E0,-1.5763128E0,-1.019104E0,-1.6417465E-1,3.1294766E-1,1.0215213E0,1.7711219E0,2.518578E0,8.90878E-1,1.0476426E0,1.1779562E0,1.2842906E0,2.3560836E0,6.7435265E-1,-5.036021E-1,-1.7580036E0,-5.8016415E0,-1.4927201E0,-4.0821824E0,-3.1657333E0,-7.2106236E-1,-2.0189795E0,-1.5950503E0,4.9712995E-1,-1.1475363E0,-7.652235E-1,-5.1699823E-1,-8.401925E-2,3.0094266E-1,4.9712995E-1,8.0368036E-1,1.1449516E0,5.091083E-1,5.95086E-1,6.838223E-1,7.8664815E-1,7.8549856E-1,6.102994E-1,2.1556301E-1,-8.293052E-1,-1.1975783E-1,-1.4371601E0,-6.6567266E-1,-2.545015E-1,-1.2529825E0,-1.7978549E0,-1.2291486E0,-7.495468E-1,-9.9232376E-1,-8.5125315E-1,-6.089456E-1,-1.02870084E-1,-3.8270393E-1,-4.9776945E-1,-2.6748213E-1,-3.7449187E-1,-2.1479848E-1,-2.8467643E-1,-1.31234E-1,-1.7092913E-1,1.2699516E-3,-4.636755E-2,7.801936E-2,1.4915842E-1,2.4177463E-1,4.7129918E-2,3.3924857E-1,7.6284E-1],"categories":[],"categories_nodes":[],"categories_segments":[],"categories_sizes":[],"default_left":[0,0,0,0,0,0,0,0,0,0,0,0,0,0,0,0,0,0,0,0,0,0,0,0,0,0,0,0,0,0,0,0,0,0,0,0,0,0,0,0,0,0,0,0,0,0,0,0,0,0,0,0,0,0,0,0,0,0,0,0,0,0,0,0,0,0,0,0,0,0,0,0,0,0,0,0,0,0,0,0,0,0,0,0,0,0,0],"id":0,"left_children":[1,3,5,7,9,11,13,15,17,19,21,23,25,27,29,31,33,35,37,39,41,43,45,47,49,51,53,-1,-1,-1,-1,55,57,59,61,63,-1,65,67,-1,69,71,-1,73,75,77,79,81,-1,83,85,-1,-1,-1,-1,-1,-1,-1,-1,-1,-1,-1,-1,-1,-1,-1,-1,-1,-1,-1,-1,-1,-1,-1,-1,-1,-1,-1,-1,-1,-1,-1,-1,-1,-1,-1,-1],"loss_changes":[1.0695916E5,9.210473E3,7.795664E3,1.2848723E4,6.6933813E2,7.131323E2,4.8983594E2,7.431625E2,2.7610781E3,6.705957E1,1.9787958E2,8.814728E1,1.1901636E2,3.488623E1,2.8054688E1,1.9117001E2,1.0060593E2,2.663711E2,2.7428906E2,6.494507E0,1.8516785E1,1.998999E1,1.3276778E1,3.5515823E0,1.5185791E1,4.789673E0,3.5610352E0,0E0,0E0,0E0,0E0,2.0986633E0,4.7421997E1,5.6275097E1,5.220337E1,3.4596875E2,0E0,6.060547E0,2.240332E1,0E0,1.5566406E0,3.2332153E0,0E0,9.796204E0,1.2920074E0,1.1594963E-1,2.397379E0,1.8763027E0,0E0,1.9132996E-1,4.6264343E0,0E0,0E0,0E0,0E0,0E0,0E0,0E0,0E0,0E0,0E0,0E0,0E0,0E0,0E0,0E0,0E0,0E0,0E0,0E0,0E0,0E0,0E0,0E0,0E0,0E0,0E0,0E0,0E0,0E0,0E0,0E0,0E0,0E0,0E0,0E0,0E0],"parents":[2147483647,0,0,1,1,2,2,3,3,4,4,5,5,6,6,7,7,8,8,9,9,10,10,11,11,12,12,13,13,14,14,15,15,16,16,17,17,18,18,19,19,20,20,21,21,22,22,23,23,24,24,25,25,26,26,31,31,32,32,33,33,34,34,35,35,37,37,38,38,40,40,41,41,43,43,44,44,45,45,46,46,47,47,49,49,50,50],"right_children":[2,4,6,8,10,12,14,16,18,20,22,24,26,28,30,32,34,36,38,40,42,44,46,48,50,52,54,-1,-1,-1,-1,56,58,60,62,64,-1,66,68,-1,70,72,-1,74,76,78,80,82,-1,84,86,-1,-1,-1,-1,-1,-1,-1,-1,-1,-1,-1,-1,-1,-1,-1,-1,-1,-1,-1,-1,-1,-1,-1,-1,-1,-1,-1,-1,-1,-1,-1,-1,-1,-1,-1,-1],"split_conditions":[1.2084714E2,8.1829124E1,1.6230573E2,7.3531985E0,9.6047134E1,1.4027238E2,1.7906953E2,3.0942762E0,5.184411E1,9.0115654E1,1.100729E2,1.2646633E2,1.525485E2,1.7009326E2,1.8869966E2,3.7542087E-1,5.002357E0,3.4497475E1,6.627458E1,8.672441E1,2E0,1.0493906E2,1.12374916E2,2E0,1.3121246E2,1.492761E2,1.5608232E2,8.90878E-1,1.0476426E0,1.1779562E0,1.2842906E0,1.7575757E-1,2E0,2E0,6.4419193E0,9.565151E0,-1.4927201E0,2E0,7.652626E1,-7.2106236E-1,2E0,9.1544106E1,4.9712995E-1,9.856212E1,1.09323906E2,1.11057915E2,1.1640303E2,1.256266E2,4.9712995E-1,2E0,2E0,5.091083E-1,5.95086E-1,6.838223E-1,7.8664815E-1,7.8549856E-1,6.102994E-1,2.1556301E-1,-8.293052E-1,-1.1975783E-1,-1.4371601E0,-6.6567266E-1,-2.545015E-1,-1.2529825E0,-1.7978549E0,-1.2291486E0,-7.495468E-1,-9.9232376E-1,-8.5125315E-1,-6.089456E-1,-1.02870084E-1,-3.8270393E-1,-4.9776945E-1,-2.6748213E-1,-3.7449187E-1,-2.1479848E-1,-2.8467643E-1,-1.31234E-1,-1.7092913E-1,1.2699516E-3,-4.636755E-2,7.801936E-2,1.4915842E-1,2.4177463E-1,4.7129918E-2,3.3924857E-1,7.6284E-1],"split_indices":[0,0,0,0,0,0,0,0,0,0,0,0,0,0,0,0,0,0,0,0,1,0,0,1,0,0,0,0,0,0,0,0,1,1,0,0,0,1,0,0,1,0,0,0,0,0,0,0,0,1,1,0,0,0,0,0,0,0,0,0,0,0,0,0,0,0,0,0,0,0,0,0,0,0,0,0,0,0,0,0,0,0,0,0,0,0,0],"split_type":[0,0,0,0,0,0,0,0,0,0,0,0,0,0,0,0,0,0,0,0,0,0,0,0,0,0,0,0,0,0,0,0,0,0,0,0,0,0,0,0,0,0,0,0,0,0,0,0,0,0,0,0,0,0,0,0,0,0,0,0,0,0,0,0,0,0,0,0,0,0,0,0,0,0,0,0,0,0,0,0,0,0,0,0,0,0,0],"sum_hessian":[1.0923E4,5.592E3,5.331E3,3.885E3,1.707E3,1.749E3,3.582E3,6.42E2,3.243E3,5.98E2,1.109E3,8.48E2,9.01E2,6.78E2,2.904E3,3.85E2,2.57E2,1.876E3,1.367E3,3.37E2,2.61E2,6.39E2,4.7E2,2.5E2,5.98E2,5.17E2,3.84E2,2.93E2,3.85E2,4.28E2,2.476E3,8.7E1,2.98E2,1.29E2,1.28E2,1.193E3,6.83E2,6.86E2,6.81E2,2.14E2,1.23E2,2.6E2,1E0,4.22E2,2.17E2,8.6E1,3.84E2,2.49E2,1E0,2.19E2,3.79E2,3.9E2,1.27E2,1.23E2,2.61E2,4.4E1,4.3E1,2.95E2,3E0,1.27E2,2E0,8.4E1,4.4E1,1.28E2,1.065E3,6.78E2,8E0,4.69E2,2.12E2,1.22E2,1E0,4.7E1,2.13E2,1.22E2,3E2,1.75E2,4.2E1,3.8E1,4.8E1,1.71E2,2.13E2,2.08E2,4.1E1,2.18E2,1E0,3.77E2,2E0],"tree_param":{"num_deleted":"0","num_feature":"2","num_nodes":"87","size_leaf_vector":"1"}},{"base_weights":[-3.9127137E-4,-2.1751835E0,2.2109354E0,-2.747436E0,-8.5271305E-1,8.935488E-1,2.7922688E0,1.2442644E-1,-3.3232825E0,-1.4055278E0,-5.061697E-1,4.789272E-1,1.330156E0,2.13635E0,2.9486213E0,7.436758E-1,-8.025297E-1,-3.9063594E0,-2.6196203E0,-1.6777341E0,-1.1700628E0,-7.79974E-1,-2.3244599E-1,1.8558766E-1,6.682769E-1,1.1754708E0,1.5937485E0,5.908439E-1,6.955328E-1,8.1338084E-1,8.986969E-1,1.6651199E0,4.6999437E-1,-7.3935395E-1,-1.3888059E0,-5.7689434E-1,-3.9552236E0,-2.8754907E0,-2.20119E0,-5.053046E-1,-1.4174782E-1,-1.1815863E0,4.2256036E-1,-7.865526E-1,3.872522E-1,-4.192591E-1,-9.778842E-2,1.777325E-1,4.2256036E-1,5.363922E-1,7.3457897E-1,3.107428E-1,1.2392979E0,4.3373066E-1,5.098196E-1,5.550856E-1,4.313708E-1,1.0317383E-1,3.6378655E-1,-8.4111206E-2,-3.5776833E-1,-1.2525392E0,-1.0747253E0,-9.379566E-1,-8.147232E-1,-6.625477E-1,-2.864344E-1,-4.0650925E-1,-3.3597267E-1,-2.5611436E-1,-2.0680577E-1,-1.2720503E-1,8.9831404E-2,8.9107896E-4,-6.941259E-2,2.0080725E-2,7.351819E-2,1.793443E-1,9.932436E-2,2.1789561E-1,5.327039E-1,3.6806068E-1,5.532218E-1],"categories":[],"categories_nodes":[],"categories_segments":[],"categories_sizes":[],"default_left":[0,0,0,0,0,0,0,0,0,0,0,0,0,0,0,0,0,0,0,0,0,0,0,0,0,0,0,0,0,0,0,0,0,0,0,0,0,0,0,0,0,0,0,0,0,0,0,0,0,0,0,0,0,0,0,0,0,0,0,0,0,0,0,0,0,0,0,0,0,0,0,0,0,0,0,0,0,0,0,0,0,0,0],"id":1,"left_children":[1,3,5,7,9,11,13,15,17,19,21,23,25,27,29,31,33,35,37,39,41,43,45,47,49,51,53,-1,-1,-1,-1,55,57,59,-1,-1,61,63,65,-1,-1,67,-1,69,-1,71,73,75,-1,77,79,-1,81,-1,-1,-1,-1,-1,-1,-1,-1,-1,-1,-1,-1,-1,-1,-1,-1,-1,-1,-1,-1,-1,-1,-1,-1,-1,-1,-1,-1,-1,-1],"loss_changes":[5.2540258E4,4.166037E3,4.1460625E3,6.3574336E3,3.1825964E2,2.9986743E2,3.7910156E2,3.6968976E2,1.3035117E3,3.912195E1,7.663913E1,4.725479E1,3.10719E1,1.7524414E1,2.5726562E1,9.655974E1,5.8951965E1,1.6189844E2,1.493418E2,1.5558472E0,1.1975189E1,7.990326E0,1.2889084E1,2.9774265E0,4.135483E0,3.2893066E0,2.1707153E0,0E0,0E0,0E0,0E0,1.0418549E0,2.7578827E1,5.270932E1,0E0,0E0,1.249082E2,2.7560059E1,2.9516602E0,0E0,0E0,2.1838684E0,0E0,2.747345E0,0E0,8.6211395E-1,4.038698E0,2.4826088E0,0E0,2.0341568E0,1.6514435E0,0E0,3.4588623E-1,0E0,0E0,0E0,0E0,0E0,0E0,0E0,0E0,0E0,0E0,0E0,0E0,0E0,0E0,0E0,0E0,0E0,0E0,0E0,0E0,0E0,0E0,0E0,0E0,0E0,0E0,0E0,0E0,0E0,0E0],"parents":[2147483647,0,0,1,1,2,2,3,3,4,4,5,5,6,6,7,7,8,8,9,9,10,10,11,11,12,12,13,13,14,14,15,15,16,16,17,17,18,18,19,19,20,20,21,21,22,22,23,23,24,24,25,25,26,26,31,31,32,32,33,33,36,36,37,37,38,38,41,41,43,43,45,45,46,46,47,47,49,49,50,50,52,52],"right_children":[2,4,6,8,10,12,14,16,18,20,22,24,26,28,30,32,34,36,38,40,42,44,46,48,50,52,54,-1,-1,-1,-1,56,58,60,-1,-1,62,64,66,-1,-1,68,-1,70,-1,72,74,76,-1,78,80,-1,82,-1,-1,-1,-1,-1,-1,-1,-1,-1,-1,-1,-1,-1,-1,-1,-1,-1,-1,-1,-1,-1,-1,-1,-1,-1,-1,-1,-1,-1,-1],"split_conditions":[1.1924411E2,8.085438E1,1.5796094E2,7.3531985E0,9.6047134E1,1.3828165E2,1.7646632E2,3.0942762E0,4.8119865E1,8.790236E1,1.0737306E2,1.2646633E2,1.5046263E2,1.678377E2,1.8765102E2,3.7542087E-1,2E0,8.214983E0,6.7925255E1,2E0,2E0,2E0,1.12374916E2,2E0,1.3013855E2,1.4215858E2,1.5396498E2,5.908439E-1,6.955328E-1,8.1338084E-1,8.986969E-1,1.7575757E-1,2.6035354E0,5.002357E0,-1.3888059E0,-5.7689434E-1,3.2864983E1,5.6135017E1,2E0,-5.053046E-1,-1.4174782E-1,9.0115654E1,4.2256036E-1,1.0209882E2,3.872522E-1,2E0,1.1640303E2,1.21812454E2,4.2256036E-1,1.293601E2,2E0,3.107428E-1,2E0,4.3373066E-1,5.098196E-1,5.550856E-1,4.313708E-1,1.0317383E-1,3.6378655E-1,-8.4111206E-2,-3.5776833E-1,-1.2525392E0,-1.0747253E0,-9.379566E-1,-8.147232E-1,-6.625477E-1,-2.864344E-1,-4.0650925E-1,-3.3597267E-1,-2.5611436E-1,-2.0680577E-1,-1.2720503E-1,8.9831404E-2,8.9107896E-4,-6.941259E-2,2.0080725E-2,7.351819E-2,1.793443E-1,9.932436E-2,2.1789561E-1,5.327039E-1,3.6806068E-1,5.532218E-1],"split_indices":[0,0,0,0,0,0,0,0,0,0,0,0,0,0,0,0,1,0,0,1,1,1,0,1,0,0,0,0,0,0,0,0,0,0,0,0,0,0,1,0,0,0,0,0,0,1,0,0,0,0,1,0,1,0,0,0,0,0,0,0,0,0,0,0,0,0,0,0,0,0,0,0,0,0,0,0,0,0,0,0,0,0,0],"split_type":[0,0,0,0,0,0,0,0,0,0,0,0,0,0,0,0,0,0,0,0,0,0,0,0,0,0,0,0,0,0,0,0,0,0,0,0,0,0,0,0,0,0,0,0,0,0,0,0,0,0,0,0,0,0,0,0,0,0,0,0,0,0,0,0,0,0,0,0,0,0,0,0,0,0,0,0,0,0,0,0,0,0,0],"sum_hessian":[1.0923E4,5.507E3,5.416E3,3.843E3,1.664E3,1.659E3,3.757E3,6.42E2,3.201E3,6.4E2,1.024E3,8.52E2,8.07E2,7.26E2,3.031E3,3.85E2,2.57E2,1.748E3,1.453E3,2.94E2,3.46E2,5.11E2,5.13E2,3.35E2,5.17E2,5.12E2,2.95E2,3.85E2,3.41E2,5.11E2,2.52E3,8.7E1,2.98E2,2.54E2,3E0,4.3E1,1.705E3,8.98E2,5.55E2,2.92E2,2E0,3.45E2,1E0,5.1E2,1E0,2.14E2,2.99E2,3.34E2,1E0,1.76E2,3.41E2,1.66E2,3.46E2,1.29E2,1.66E2,4.4E1,4.3E1,2.56E2,4.2E1,1.27E2,1.27E2,1.066E3,6.39E2,3.42E2,5.56E2,5.51E2,4E0,8.5E1,2.6E2,2.97E2,2.13E2,2.13E2,1E0,1.71E2,1.28E2,1.27E2,2.07E2,1.34E2,4.2E1,3.4E2,1E0,3.42E2,4E0],"tree_param":{"num_deleted":"0","num_feature":"2","num_nodes":"83","size_leaf_vector":"1"}},{"base_weights":[-3.1165438E-4,-1.5239233E0,1.5488951E0,-1.9327514E0,-6.1322105E-1,6.92615E-1,1.9869988E0,8.6511664E-2,-2.3431513E0,-1.0000339E0,-3.5449594E-1,3.3706096E-1,1.000443E0,1.6208938E0,2.0785024E0,9.95732E-1,-2.5027737E-1,-2.7361119E0,-1.8543978E0,-1.181938E0,-8.199657E-1,-5.029789E-1,-1.07388124E-1,1.3144785E-1,4.6978095E-1,8.5122937E-1,1.2299975E0,4.4152465E-1,5.2460176E-1,5.9173745E-1,6.3583577E-1,7.35936E-1,5.239756E-1,-2.0669465E-1,-1.2786397E0,-1.9157242E0,-2.799711E0,-2.1208487E0,-1.6558018E0,-3.5567957E-1,-1.1339827E-1,-8.292561E-1,3.5917628E-1,-5.087931E-1,9.0115803E-1,-2.3962918E-1,-6.868026E-2,1.2469245E-1,3.5917628E-1,3.770491E-1,5.164001E-1,7.86828E-1,2.8877807E-1,3.36533E-1,3.829566E-1,3.530382E-1,-4.875169E-2,4.514563E-2,-1.90604E-1,-4.0775946E-1,-6.534548E-1,-8.95825E-1,-7.528115E-1,-6.393451E-1,-2.8355613E-1,-5.33302E-1,-4.547104E-1,-2.6151416E-1,-2.0785181E-1,-1.7153986E-1,-1.1517595E-1,3.2916442E-1,7.63567E-2,-5.5690285E-2,-8.33143E-2,6.25413E-4,-4.8750345E-2,1.4103618E-2,5.1568884E-2,1.259396E-1,7.0220046E-2,1.5271863E-1,4.527984E-1,2.3185317E-1,4.624047E-1],"categories":[],"categories_nodes":[],"categories_segments":[],"categories_sizes":[],"default_left":[0,0,0,0,0,0,0,0,0,0,0,0,0,0,0,0,0,0,0,0,0,0,0,0,0,0,0,0,0,0,0,0,0,0,0,0,0,0,0,0,0,0,0,0,0,0,0,0,0,0,0,0,0,0,0,0,0,0,0,0,0,0,0,0,0,0,0,0,0,0,0,0,0,0,0,0,0,0,0,0,0,0,0,0,0],"id":2,"left_children":[1,3,5,7,9,11,13,15,17,19,21,23,25,27,29,31,33,35,37,39,41,43,45,47,49,51,53,-1,-1,-1,-1,55,-1,57,-1,59,61,63,65,-1,-1,67,-1,69,71,73,75,77,-1,79,81,83,-1,-1,-1,-1,-1,-1,-1,-1,-1,-1,-1,-1,-1,-1,-1,-1,-1,-1,-1,-1,-1,-1,-1,-1,-1,-1,-1,-1,-1,-1,-1,-1,-1],"loss_changes":[2.5787256E4,2.0495566E3,2.0307539E3,3.1501123E3,1.705791E2,2.0050244E2,1.1666211E2,1.9714574E2,6.016465E2,2.1435364E1,3.755458E1,2.3215736E1,3.2623413E1,1.116687E1,8.251953E0,3.265657E1,8.129739E1,8.58916E1,7.115332E1,5.465393E-1,7.4958496E0,5.68338E0,1.9593878E0,2.2698956E0,2.0446472E0,3.5386353E0,5.064087E-1,0E0,0E0,0E0,0E0,5.2078384E1,0E0,7.1442986E1,0E0,1.5881805E1,8.02207E1,5.2402344E0,1.1186768E1,0E0,0E0,1.4000702E0,0E0,4.8001556E0,1.0106611E-1,1.2735367E-1,1.9921081E0,1.2203007E0,0E0,9.836407E-1,1.7235107E0,2.8710327E0,0E0,0E0,0E0,0E0,0E0,0E0,0E0,0E0,0E0,0E0,0E0,0E0,0E0,0E0,0E0,0E0,0E0,0E0,0E0,0E0,0E0,0E0,0E0,0E0,0E0,0E0,0E0,0E0,0E0,0E0,0E0,0E0,0E0],"parents":[2147483647,0,0,1,1,2,2,3,3,4,4,5,5,6,6,7,7,8,8,9,9,10,10,11,11,12,12,13,13,14,14,15,15,16,16,17,17,18,18,19,19,20,20,21,21,22,22,23,23,24,24,25,25,26,26,31,31,33,33,35,35,36,36,37,37,38,38,41,41,43,43,44,44,45,45,46,46,47,47,49,49,50,50,51,51],"right_children":[2,4,6,8,10,12,14,16,18,20,22,24,26,28,30,32,34,36,38,40,42,44,46,48,50,52,54,-1,-1,-1,-1,56,-1,58,-1,60,62,64,66,-1,-1,68,-1,70,72,74,76,78,-1,80,82,84,-1,-1,-1,-1,-1,-1,-1,-1,-1,-1,-1,-1,-1,-1,-1,-1,-1,-1,-1,-1,-1,-1,-1,-1,-1,-1,-1,-1,-1,-1,-1,-1,-1],"split_conditions":[1.1924411E2,7.973047E1,1.6230573E2,7.3531985E0,9.6047134E1,1.3828165E2,1.7992542E2,9.382155E-1,4.8119865E1,8.790236E1,1.100729E2,1.2646633E2,1.525485E2,1.7113805E2,1.9865573E2,6.3804716E-1,2E0,9.565151E0,6.1394108E1,2E0,2E0,2E0,1.12374916E2,2E0,1.3013855E2,1.474724E2,1.5608232E2,4.4152465E-1,5.2460176E-1,5.9173745E-1,6.3583577E-1,3.7542087E-1,5.239756E-1,3.7627945E0,-1.2786397E0,8.214983E0,3.2864983E1,2E0,7.0908585E1,-3.5567957E-1,-1.1339827E-1,9.4358246E1,3.5917628E-1,1.0493906E2,9.697575E1,1.11057915E2,1.1640303E2,1.21812454E2,3.5917628E-1,1.293601E2,2E0,2E0,2.8877807E-1,3.36533E-1,3.829566E-1,3.530382E-1,-4.875169E-2,4.514563E-2,-1.90604E-1,-4.0775946E-1,-6.534548E-1,-8.95825E-1,-7.528115E-1,-6.393451E-1,-2.8355613E-1,-5.33302E-1,-4.547104E-1,-2.6151416E-1,-2.0785181E-1,-1.7153986E-1,-1.1517595E-1,3.2916442E-1,7.63567E-2,-5.5690285E-2,-8.33143E-2,6.25413E-4,-4.8750345E-2,1.4103618E-2,5.1568884E-2,1.259396E-1,7.0220046E-2,1.5271863E-1,4.527984E-1,2.3185317E-1,4.624047E-1],"split_indices":[0,0,0,0,0,0,0,0,0,0,0,0,0,0,0,0,1,0,0,1,1,1,0,1,0,0,0,0,0,0,0,0,0,0,0,0,0,1,0,0,0,0,0,0,0,0,0,0,0,0,1,1,0,0,0,0,0,0,0,0,0,0,0,0,0,0,0,0,0,0,0,0,0,0,0,0,0,0,0,0,0,0,0,0,0],"split_type":[0,0,0,0,0,0,0,0,0,0,0,0,0,0,0,0,0,0,0,0,0,0,0,0,0,0,0,0,0,0,0,0,0,0,0,0,0,0,0,0,0,0,0,0,0,0,0,0,0,0,0,0,0,0,0,0,0,0,0,0,0,0,0,0,0,0,0,0,0,0,0,0,0,0,0,0,0,0,0,0,0,0,0,0,0],"sum_hessian":[1.0923E4,5.507E3,5.416E3,3.8E3,1.707E3,1.834E3,3.582E3,6.42E2,3.158E3,6.83E2,1.024E3,8.52E2,9.82E2,7.2E2,2.862E3,1.73E2,4.69E2,1.748E3,1.41E3,3.37E2,3.46E2,6.39E2,3.85E2,3.35E2,5.17E2,5.98E2,3.84E2,3.38E2,3.82E2,8.11E2,2.051E3,1.3E2,4.3E1,4.65E2,4E0,1.28E2,1.62E3,5.98E2,8.12E2,3.35E2,2E0,3.45E2,1E0,6.37E2,2E0,8.6E1,2.99E2,3.34E2,1E0,1.76E2,3.41E2,3.84E2,2.14E2,1.23E2,2.61E2,8.7E1,4.3E1,2.54E2,2.11E2,4.3E1,8.5E1,9.81E2,6.39E2,5.92E2,6E0,4.28E2,3.84E2,2.59E2,8.6E1,4.21E2,2.16E2,1E0,1E0,3.8E1,4.8E1,1.71E2,1.28E2,1.27E2,2.07E2,1.34E2,4.2E1,3.4E2,1E0,3.79E2,5E0],"tree_param":{"num_deleted":"0","num_feature":"2","num_nodes":"85","size_leaf_vector":"1"}},{"base_weights":[-2.8606624E-4,-1.067811E0,1.0851723E0,-1.3542985E0,-4.2963392E-1,4.4017255E-1,1.3697956E0,5.963151E-2,-1.6416687E0,-7.0087063E-1,-2.4821392E-1,2.3738058E-1,6.537139E-1,1.03139E0,1.4444903E0,5.478199E-1,-2.6894102E-1,-1.941758E0,-1.3237202E0,-8.034664E-1,-5.325542E-1,-3.8570037E-1,-1.10779494E-1,7.357019E-2,3.2340327E-1,5.773789E-1,7.8380203E-1,2.920914E-1,3.3699912E-1,3.8999298E-1,1.4673574E0,7.0177275E-1,2.2996391E-1,-2.2925511E-1,-9.717662E-1,-1.3492333E0,-1.9915868E0,-1.5309112E0,-1.1757687E0,-2.5280064E-1,-7.0214236E-1,-5.4239285E-1,3.0529976E-1,-2.1142435E-1,-4.396754E-1,-1.97533E-1,-4.8236884E-2,6.6897534E-2,3.0529976E-1,2.6715922E-1,3.714176E-1,5.694081E-1,1.156012E0,2.1390648E-1,2.5026217E-1,4.2503583E-1,4.4719234E-1,1.5524347E-1,3.7035555E-1,4.259267E-2,9.209282E-2,-5.1279953E-3,-1.945418E-1,-4.6189708E-1,-2.8786838E-1,-6.2735116E-1,-5.3923696E-1,-4.6200377E-1,-1.4753754E-1,-3.7511188E-1,-3.1505156E-1,-2.1155578E-1,-4.916768E-2,-9.477288E-2,-1.771975E-1,-1.0517507E-1,1.6688872E-2,-1.6868356E-1,-1.0086464E-1,-2.986678E-2,-7.862379E-2,-7.069755E-3,-5.7372566E-2,5.3777236E-2,1.4237862E-2,8.426431E-2,7.0791274E-2,1.8434459E-1,1.0010239E-1,1.4906403E-1,1.8577853E-1,4.767857E-1,5.7892993E-2],"categories":[],"categories_nodes":[],"categories_segments":[],"categories_sizes":[],"default_left":[0,0,0,0,0,0,0,0,0,0,0,0,0,0,0,0,0,0,0,0,0,0,0,0,0,0,0,0,0,0,0,0,0,0,0,0,0,0,0,0,0,0,0,0,0,0,0,0,0,0,0,0,0,0,0,0,0,0,0,0,0,0,0,0,0,0,0,0,0,0,0,0,0,0,0,0,0,0,0,0,0,0,0,0,0,0,0,0,0,0,0,0,0],"id":3,"left_children":[1,3,5,7,9,11,13,15,17,19,21,23,25,27,29,31,33,35,37,39,41,43,45,47,49,51,53,-1,-1,-1,55,57,59,61,-1,63,65,67,69,-1,71,73,-1,75,77,79,81,83,-1,85,87,89,91,-1,-1,-1,-1,-1,-1,-1,-1,-1,-1,-1,-1,-1,-1,-1,-1,-1,-1,-1,-1,-1,-1,-1,-1,-1,-1,-1,-1,-1,-1,-1,-1,-1,-1,-1,-1,-1,-1,-1,-1],"loss_changes":[1.2659386E4,1.00644336E3,9.9385986E2,1.5445254E3,8.3872925E1,7.1730255E1,9.350244E1,1.0328794E2,2.9883887E2,1.1383759E1,1.9325027E1,1.19961815E1,7.5711365E0,2.5327759E0,8.257324E0,1.2512741E1,4.4640533E1,4.5231445E1,4.531543E1,1.088562E0,4.5480194E0,4.723198E0,2.7793279E0,1.7903109E0,1.4103622E0,1.7078094E0,4.6122742E-1,0E0,0E0,0E0,1.0058594E0,1.6444847E1,5.391674E-1,3.3875793E1,0E0,8.094757E0,2.5143066E1,5.266968E0,7.1293945E0,0E0,8.756256E-2,2.666481E0,0E0,4.5905533E0,4.7579117E0,1.33358E0,1.0539176E0,6.336038E-1,0E0,4.541588E-2,2.537983E0,1.5291138E0,2.1968517E0,0E0,0E0,0E0,0E0,0E0,0E0,0E0,0E0,0E0,0E0,0E0,0E0,0E0,0E0,0E0,0E0,0E0,0E0,0E0,0E0,0E0,0E0,0E0,0E0,0E0,0E0,0E0,0E0,0E0,0E0,0E0,0E0,0E0,0E0,0E0,0E0,0E0,0E0,0E0,0E0],"parents":[2147483647,0,0,1,1,2,2,3,3,4,4,5,5,6,6,7,7,8,8,9,9,10,10,11,11,12,12,13,13,14,14,15,15,16,16,17,17,18,18,19,19,20,20,21,21,22,22,23,23,24,24,25,25,26,26,30,30,31,31,32,32,33,33,35,35,36,36,37,37,38,38,40,40,41,41,43,43,44,44,45,45,46,46,47,47,49,49,50,50,51,51,52,52],"right_children":[2,4,6,8,10,12,14,16,18,20,22,24,26,28,30,32,34,36,38,40,42,44,46,48,50,52,54,-1,-1,-1,56,58,60,62,-1,64,66,68,70,-1,72,74,-1,76,78,80,82,84,-1,86,88,90,92,-1,-1,-1,-1,-1,-1,-1,-1,-1,-1,-1,-1,-1,-1,-1,-1,-1,-1,-1,-1,-1,-1,-1,-1,-1,-1,-1,-1,-1,-1,-1,-1,-1,-1,-1,-1,-1,-1,-1,-1],"split_conditions":[1.1924411E2,7.973047E1,1.5796094E2,7.3531985E0,9.6047134E1,1.3828165E2,1.752138E2,1.603367E0,4.50697E1,9.0115654E1,1.0737306E2,1.256266E2,1.5046263E2,1.688835E2,1.8504546E2,9.382155E-1,2E0,9.565151E0,5.9489563E1,8.672441E1,2E0,9.856212E1,1.12374916E2,2E0,1.3121246E2,2E0,1.5396498E2,2.920914E-1,3.3699912E-1,3.8999298E-1,2.0474883E2,6.3804716E-1,1.2159933E0,5.002357E0,-9.717662E-1,8.814983E0,3.2864983E1,2E0,7.188266E1,-2.5280064E-1,2E0,9.1544106E1,3.0529976E-1,9.766263E1,1.0209882E2,1.09323906E2,1.1827323E2,1.1992155E2,3.0529976E-1,1.293601E2,1.320404E2,1.4339075E2,1.4339075E2,2.1390648E-1,2.5026217E-1,4.2503583E-1,4.4719234E-1,1.5524347E-1,3.7035555E-1,4.259267E-2,9.209282E-2,-5.1279953E-3,-1.945418E-1,-4.6189708E-1,-2.8786838E-1,-6.2735116E-1,-5.3923696E-1,-4.6200377E-1,-1.4753754E-1,-3.7511188E-1,-3.1505156E-1,-2.1155578E-1,-4.916768E-2,-9.477288E-2,-1.771975E-1,-1.0517507E-1,1.6688872E-2,-1.6868356E-1,-1.0086464E-1,-2.986678E-2,-7.862379E-2,-7.069755E-3,-5.7372566E-2,5.3777236E-2,1.4237862E-2,8.426431E-2,7.0791274E-2,1.8434459E-1,1.0010239E-1,1.4906403E-1,1.8577853E-1,4.767857E-1,5.7892993E-2],"split_indices":[0,0,0,0,0,0,0,0,0,0,0,0,0,0,0,0,1,0,0,0,1,0,0,1,0,1,0,0,0,0,0,0,0,0,0,0,0,1,0,0,1,0,0,0,0,0,0,0,0,0,0,0,0,0,0,0,0,0,0,0,0,0,0,0,0,0,0,0,0,0,0,0,0,0,0,0,0,0,0,0,0,0,0,0,0,0,0,0,0,0,0,0,0],"split_type":[0,0,0,0,0,0,0,0,0,0,0,0,0,0,0,0,0,0,0,0,0,0,0,0,0,0,0,0,0,0,0,0,0,0,0,0,0,0,0,0,0,0,0,0,0,0,0,0,0,0,0,0,0,0,0,0,0,0,0,0,0,0,0,0,0,0,0,0,0,0,0,0,0,0,0,0,0,0,0,0,0,0,0,0,0,0,0,0,0,0,0,0,0],"sum_hessian":[1.0923E4,5.507E3,5.416E3,3.8E3,1.707E3,1.659E3,3.757E3,6.42E2,3.158E3,6.83E2,1.024E3,8.52E2,8.07E2,6.82E2,3.075E3,2.58E2,3.84E2,1.622E3,1.536E3,4.22E2,2.61E2,5.11E2,5.13E2,2.94E2,5.58E2,5.12E2,2.95E2,4.26E2,2.56E2,4.28E2,2.647E3,1.73E2,8.5E1,3.8E2,4E0,1.28E2,1.494E3,6.36E2,9E2,2.99E2,1.23E2,2.6E2,1E0,1.22E2,3.89E2,2.14E2,2.99E2,2.93E2,1E0,2.6E2,2.98E2,5.07E2,5E0,1.29E2,1.66E2,8.54E2,1.793E3,1.3E2,4.3E1,4.1E1,4.4E1,2.53E2,1.27E2,8.4E1,4.4E1,9.81E2,5.13E2,6.3E2,6E0,5.59E2,3.41E2,1.22E2,1E0,4.7E1,2.13E2,8E1,4.2E1,1.76E2,2.13E2,8.6E1,1.28E2,2.56E2,4.3E1,4.2E1,2.51E2,1.75E2,8.5E1,3.8E1,2.6E2,2.11E2,2.96E2,3E0,2E0],"tree_param":{"num_deleted":"0","num_feature":"2","num_nodes":"93","size_leaf_vector":"1"}},{"base_weights":[-2.6430533E-4,-7.3132795E-1,7.7847743E-1,-9.4189864E-1,-2.6332277E-1,3.6514047E-1,9.752961E-1,1.3079503E-1,-1.1214184E0,-4.1368446E-1,-1.0508186E-1,2.235444E-1,5.1928806E-1,8.185953E-1,1.0267795E0,4.942613E-1,-3.3812564E-2,-1.281939E0,-8.3555967E-1,-5.482566E-1,-3.3172187E-1,-2.1149811E-1,-3.3932857E-2,1.393228E-1,2.8693372E-1,4.531488E-1,6.098231E-1,7.5383115E-1,2.7064234E-1,2.9757425E-1,3.1310946E-1,3.6341944E-1,8.7258E-1,-1.8603657E-3,-7.3854226E-1,-5.3538126E-1,-1.3294035E0,-9.339168E-1,-7.48617E-1,-1.2566335E-1,-5.632483E-1,-3.395425E-1,3.7004718E-1,-1.8852927E-1,-3.6682728E-1,-6.891936E-2,-8.459642E-3,8.8143736E-2,1.7812444E-1,2.806228E-1,3.7671816E-1,4.4832698E-1,8.1770056E-1,6.313949E-1,1.3936251E-1,7.4811727E-1,3.8602418E-1,2.0228644E-1,-7.997322E-2,2.389362E-1,6.219E-1,2.5852866E-2,-5.3583626E-2,-3.7404114E-1,-5.692645E-2,-4.2589054E-1,-3.4556857E-1,-2.684474E-1,-3.0565047E-1,-2.3446925E-1,-1.849949E-1,-1.8265735E-1,-1.4808063E-1,-1.2377893E-1,-9.1609634E-2,-6.787931E-2,2.81534E-3,-1.163206E-1,7.669673E-2,-2.748556E-2,-1.5959471E-2,5.8439028E-2,-1.2770196E-2,2.3493621E-2,2.595048E-1,5.912852E-2,2.8900472E-2,7.3016636E-2,9.996886E-2,1.2117208E-1,1.450818E-1,3.6253586E-1,4.6314433E-2,1.7563306E-1,2.0579636E-1,2.0894244E-1,2.3458183E-1],"categories":[],"categories_nodes":[],"categories_segments":[],"categories_sizes":[],"default_left":[0,0,0,0,0,0,0,0,0,0,0,0,0,0,0,0,0,0,0,0,0,0,0,0,0,0,0,0,0,0,0,0,0,0,0,0,0,0,0,0,0,0,0,0,0,0,0,0,0,0,0,0,0,0,0,0,0,0,0,0,0,0,0,0,0,0,0,0,0,0,0,0,0,0,0,0,0,0,0,0,0,0,0,0,0,0,0,0,0,0,0,0,0,0,0,0,0],"id":4,"left_children":[1,3,5,7,9,11,13,15,17,19,21,23,25,27,29,31,33,35,37,39,41,43,45,47,49,51,53,55,-1,-1,-1,57,59,61,-1,63,65,67,69,-1,71,73,-1,75,77,79,81,83,85,87,-1,89,91,93,-1,95,-1,-1,-1,-1,-1,-1,-1,-1,-1,-1,-1,-1,-1,-1,-1,-1,-1,-1,-1,-1,-1,-1,-1,-1,-1,-1,-1,-1,-1,-1,-1,-1,-1,-1,-1,-1,-1,-1,-1,-1,-1],"loss_changes":[6.219709E3,5.550708E2,4.2999805E2,7.4847266E2,4.1594933E1,3.7163895E1,2.806543E1,3.3401466E1,1.5168408E2,9.711929E0,6.458807E0,4.722191E0,4.6157837E0,4.140991E0,5.5322266E-1,8.295872E0,2.986363E1,7.476489E1,9.562561E0,4.1966248E-1,7.2737656E0,1.1510057E0,4.566123E-1,7.488446E-1,2.753502E0,4.7011566E-1,7.785187E-1,5.842285E-1,0E0,0E0,0E0,2.5835611E1,2.369812E0,5.9439864E0,0E0,3.1482758E1,3.043042E1,9.4400024E-1,2.3094482E0,0E0,6.524277E-1,1.2672043E0,0E0,2.242612E0,6.587682E-1,7.2206974E-2,2.074208E0,1.2154341E0,3.1926107E-1,9.1002655E-1,0E0,5.4434204E-1,1.1094043E0,3.3843994E-1,0E0,3.3743286E-1,0E0,0E0,0E0,0E0,0E0,0E0,0E0,0E0,0E0,0E0,0E0,0E0,0E0,0E0,0E0,0E0,0E0,0E0,0E0,0E0,0E0,0E0,0E0,0E0,0E0,0E0,0E0,0E0,0E0,0E0,0E0,0E0,0E0,0E0,0E0,0E0,0E0,0E0,0E0,0E0,0E0],"parents":[2147483647,0,0,1,1,2,2,3,3,4,4,5,5,6,6,7,7,8,8,9,9,10,10,11,11,12,12,13,13,14,14,15,15,16,16,17,17,18,18,19,19,20,20,21,21,22,22,23,23,24,24,25,25,26,26,27,27,31,31,32,32,33,33,35,35,36,36,37,37,38,38,40,40,41,41,43,43,44,44,45,45,46,46,47,47,48,48,49,49,51,51,52,52,53,53,55,55],"right_children":[2,4,6,8,10,12,14,16,18,20,22,24,26,28,30,32,34,36,38,40,42,44,46,48,50,52,54,56,-1,-1,-1,58,60,62,-1,64,66,68,70,-1,72,74,-1,76,78,80,82,84,86,88,-1,90,92,94,-1,96,-1,-1,-1,-1,-1,-1,-1,-1,-1,-1,-1,-1,-1,-1,-1,-1,-1,-1,-1,-1,-1,-1,-1,-1,-1,-1,-1,-1,-1,-1,-1,-1,-1,-1,-1,-1,-1,-1,-1,-1,-1],"split_conditions":[1.21812454E2,8.1829124E1,1.6230573E2,5.6531987E0,1.0209882E2,1.4215858E2,1.8383014E2,9.382155E-1,5.5304714E1,9.0115654E1,1.100729E2,1.3013855E2,1.5396498E2,1.752138E2,2.0474883E2,6.3804716E-1,2E0,8.214983E0,6.714124E1,8.265101E1,2E0,1.09323906E2,1.154532E2,1.256266E2,2E0,2E0,1.6103384E2,2E0,2.7064234E-1,2.9757425E-1,3.1310946E-1,3.7542087E-1,2E0,3.7627945E0,-7.3854226E-1,6.4419193E0,3.8732998E1,6.3565826E1,7.8593094E1,-1.2566335E-1,8.672441E1,9.4358246E1,3.7004718E-1,1.08313805E2,2E0,1.12374916E2,1.1640303E2,2E0,1.293601E2,1.372229E2,3.7671816E-1,1.474724E2,1.4339075E2,1.5796094E2,1.3936251E-1,1.678377E2,3.8602418E-1,2.0228644E-1,-7.997322E-2,2.389362E-1,6.219E-1,2.5852866E-2,-5.3583626E-2,-3.7404114E-1,-5.692645E-2,-4.2589054E-1,-3.4556857E-1,-2.684474E-1,-3.0565047E-1,-2.3446925E-1,-1.849949E-1,-1.8265735E-1,-1.4808063E-1,-1.2377893E-1,-9.1609634E-2,-6.787931E-2,2.81534E-3,-1.163206E-1,7.669673E-2,-2.748556E-2,-1.5959471E-2,5.8439028E-2,-1.2770196E-2,2.3493621E-2,2.595048E-1,5.912852E-2,2.8900472E-2,7.3016636E-2,9.996886E-2,1.2117208E-1,1.450818E-1,3.6253586E-1,4.6314433E-2,1.7563306E-1,2.0579636E-1,2.0894244E-1,2.3458183E-1],"split_indices":[0,0,0,0,0,0,0,0,0,0,0,0,0,0,0,0,1,0,0,0,1,0,0,0,1,1,0,1,0,0,0,0,1,0,0,0,0,0,0,0,0,0,0,0,1,0,0,1,0,0,0,0,0,0,0,0,0,0,0,0,0,0,0,0,0,0,0,0,0,0,0,0,0,0,0,0,0,0,0,0,0,0,0,0,0,0,0,0,0,0,0,0,0,0,0,0,0],"split_type":[0,0,0,0,0,0,0,0,0,0,0,0,0,0,0,0,0,0,0,0,0,0,0,0,0,0,0,0,0,0,0,0,0,0,0,0,0,0,0,0,0,0,0,0,0,0,0,0,0,0,0,0,0,0,0,0,0,0,0,0,0,0,0,0,0,0,0,0,0,0,0,0,0,0,0,0,0,0,0,0,0,0,0,0,0,0,0,0,0,0,0,0,0,0,0,0,0],"sum_hessian":[1.0923E4,5.634E3,5.289E3,3.885E3,1.749E3,1.707E3,3.582E3,5.57E2,3.328E3,8.96E2,8.53E2,8.91E2,8.16E2,8.9E2,2.692E3,1.73E2,3.84E2,2.129E3,1.199E3,3.37E2,5.59E2,3.41E2,5.12E2,3.84E2,5.07E2,4.75E2,3.41E2,5.07E2,3.83E2,8.99E2,1.793E3,1.3E2,4.3E1,3.8E2,4E0,1.28E2,2.001E3,5.58E2,6.41E2,3.8E1,2.99E2,5.57E2,2E0,2.99E2,4.2E1,2.15E2,2.97E2,1.67E2,2.17E2,5.05E2,2E0,4.71E2,4E0,2.94E2,4.7E1,5.04E2,3E0,8.7E1,4.3E1,4.2E1,1E0,2.54E2,1.26E2,4.1E1,8.7E1,1.322E3,6.79E2,3.9E2,1.68E2,5.09E2,1.32E2,1.76E2,1.23E2,1.74E2,3.83E2,2.51E2,4.8E1,4.1E1,1E0,8.6E1,1.29E2,4.2E1,2.55E2,1.66E2,1E0,1.75E2,4.2E1,2.99E2,2.06E2,2.14E2,2.57E2,2E0,2E0,1.66E2,1.28E2,2.08E2,2.96E2],"tree_param":{"num_deleted":"0","num_feature":"2","num_nodes":"97","size_leaf_vector":"1"}},{"base_weights":[-5.276604E-5,-5.24598E-1,5.333043E-1,-6.6769755E-1,-2.1820457E-1,2.4035864E-1,6.831848E-1,3.497837E-2,-8.126696E-1,-3.6755952E-1,-1.3129894E-1,1.2926877E-1,3.5512313E-1,5.3599006E-1,7.097575E-1,2.8171867E-1,-1.3110141E-1,-9.7199124E-1,-6.649572E-1,-4.1191557E-1,-3.0072182E-1,-1.9495189E-1,-5.6988124E-2,4.9961444E-2,1.735392E-1,3.0981937E-1,4.2839885E-1,5.3165317E-1,9.9722886E-1,6.6288567E-1,2.1795511E-1,6.1275727E-1,2.111212E-1,-1.0792435E-1,-5.612921E-1,-6.956752E-1,-1.0285218E0,-7.5021005E-1,-5.691536E-1,-1.2400681E-1,-2.7214242E-2,-3.0710915E-1,2.0399767E-1,-1.9795917E-1,2.4005885E-1,-1.14183076E-1,-3.772611E-2,4.572095E-2,2.2057916E-1,1.6935974E-1,7.5289464E-1,3.061721E-1,6.541607E-1,4.4326925E-1,9.842484E-2,1.5058465E-1,1.7274222E-1,3.4256744E-1,8.448616E-2,1.9040433E-1,2.045515E-1,1.725752E-1,3.394571E-1,6.880725E-2,-3.4620878E-1,-3.4399151E-3,-8.954699E-2,-2.5468996E-1,-1.8490121E-1,-3.964846E-1,-2.9001978E-1,-1.6139823E-1,-2.282435E-1,-1.2096113E-1,-1.7702945E-1,-7.6856956E-2,-1.0728547E-1,-4.1051224E-2,-6.901496E-2,-1.258101E-2,-7.7310175E-2,-8.014963E-3,-3.6807984E-2,4.1761223E-2,9.5536625E-3,4.617471E-2,6.2053207E-2,-3.2486918E-4,3.0137444E-1,7.949409E-2,9.944617E-2,2.9002878E-1,3.7051585E-2,1.2325854E-1,1.4453608E-1],"categories":[],"categories_nodes":[],"categories_segments":[],"categories_sizes":[],"default_left":[0,0,0,0,0,0,0,0,0,0,0,0,0,0,0,0,0,0,0,0,0,0,0,0,0,0,0,0,0,0,0,0,0,0,0,0,0,0,0,0,0,0,0,0,0,0,0,0,0,0,0,0,0,0,0,0,0,0,0,0,0,0,0,0,0,0,0,0,0,0,0,0,0,0,0,0,0,0,0,0,0,0,0,0,0,0,0,0,0,0,0,0,0,0,0],"id":5,"left_children":[1,3,5,7,9,11,13,15,17,19,21,23,25,27,29,31,33,35,37,39,41,43,45,47,49,51,53,55,57,59,-1,61,63,65,-1,67,69,71,73,-1,-1,75,-1,77,-1,79,81,83,-1,85,87,89,91,93,-1,-1,-1,-1,-1,-1,-1,-1,-1,-1,-1,-1,-1,-1,-1,-1,-1,-1,-1,-1,-1,-1,-1,-1,-1,-1,-1,-1,-1,-1,-1,-1,-1,-1,-1,-1,-1,-1,-1,-1,-1],"loss_changes":[3.056486E3,2.4135132E2,2.3767908E2,3.8244214E2,2.273127E1,2.3348824E1,1.3634033E1,2.6386158E1,7.2591064E1,1.7883301E0,5.2440357E0,3.2705755E0,2.861618E0,5.740051E-1,1.9001465E0,5.9235916E0,1.5323254E1,2.2636719E1,1.2788086E1,1.40625E-1,1.8437729E0,1.9480324E0,5.6196105E-1,9.428065E-1,1.3229065E0,5.042763E-1,3.647461E-1,4.3103027E-1,9.2507124E-2,2.1362305E-4,0E0,2.2466087E-1,5.6171703E0,6.999957E0,0E0,2.602333E0,2.1160645E1,1.5097961E0,2.4244843E0,0E0,0E0,5.7707405E-1,0E0,1.1394997E0,0E0,1.3267448E0,3.5780644E-1,4.301011E-1,0E0,3.1319237E-1,7.601526E-1,4.929886E-1,7.100191E-1,1.7028809E-1,0E0,0E0,0E0,0E0,0E0,0E0,0E0,0E0,0E0,0E0,0E0,0E0,0E0,0E0,0E0,0E0,0E0,0E0,0E0,0E0,0E0,0E0,0E0,0E0,0E0,0E0,0E0,0E0,0E0,0E0,0E0,0E0,0E0,0E0,0E0,0E0,0E0,0E0,0E0,0E0,0E0],"parents":[2147483647,0,0,1,1,2,2,3,3,4,4,5,5,6,6,7,7,8,8,9,9,10,10,11,11,12,12,13,13,14,14,15,15,16,16,17,17,18,18,19,19,20,20,21,21,22,22,23,23,24,24,25,25,26,26,27,27,28,28,29,29,31,31,32,32,33,33,35,35,36,36,37,37,38,38,41,41,43,43,45,45,46,46,47,47,49,49,50,50,51,51,52,52,53,53],"right_children":[2,4,6,8,10,12,14,16,18,20,22,24,26,28,30,32,34,36,38,40,42,44,46,48,50,52,54,56,58,60,-1,62,64,66,-1,68,70,72,74,-1,-1,76,-1,78,-1,80,82,84,-1,86,88,90,92,94,-1,-1,-1,-1,-1,-1,-1,-1,-1,-1,-1,-1,-1,-1,-1,-1,-1,-1,-1,-1,-1,-1,-1,-1,-1,-1,-1,-1,-1,-1,-1,-1,-1,-1,-1,-1,-1,-1,-1,-1,-1],"split_conditions":[1.1924411E2,7.8593094E1,1.6230573E2,7.3531985E0,9.4358246E1,1.4027238E2,1.7646632E2,1.603367E0,4.1919025E1,8.790236E1,1.0737306E2,1.2646633E2,1.5396498E2,2E0,1.9491986E2,1.7575757E-1,2E0,1.2234848E1,6.1394108E1,2E0,2E0,2E0,1.100729E2,2E0,2E0,2E0,1.6103384E2,1.7113805E2,1.666399E2,1.8383014E2,2.1795511E-1,2E0,2E0,5.002357E0,-5.612921E-1,8.814983E0,1.6813805E1,4.285505E1,6.3565826E1,-1.2400681E-1,-2.7214242E-2,9.1544106E1,2.0399767E-1,9.856212E1,2.4005885E-1,1.09323906E2,1.1827323E2,1.1992155E2,2.2057916E-1,1.3599277E2,1.3013855E2,1.455596E2,1.4339075E2,1.5796094E2,9.842484E-2,1.5058465E-1,1.7274222E-1,3.4256744E-1,8.448616E-2,1.9040433E-1,2.045515E-1,1.725752E-1,3.394571E-1,6.880725E-2,-3.4620878E-1,-3.4399151E-3,-8.954699E-2,-2.5468996E-1,-1.8490121E-1,-3.964846E-1,-2.9001978E-1,-1.6139823E-1,-2.282435E-1,-1.2096113E-1,-1.7702945E-1,-7.6856956E-2,-1.0728547E-1,-4.1051224E-2,-6.901496E-2,-1.258101E-2,-7.7310175E-2,-8.014963E-3,-3.6807984E-2,4.1761223E-2,9.5536625E-3,4.617471E-2,6.2053207E-2,-3.2486918E-4,3.0137444E-1,7.949409E-2,9.944617E-2,2.9002878E-1,3.7051585E-2,1.2325854E-1,1.4453608E-1],"split_indices":[0,0,0,0,0,0,0,0,0,0,0,0,0,1,0,0,1,0,0,1,1,1,0,1,1,1,0,0,0,0,0,1,1,0,0,0,0,0,0,0,0,0,0,0,0,0,0,0,0,0,0,0,0,0,0,0,0,0,0,0,0,0,0,0,0,0,0,0,0,0,0,0,0,0,0,0,0,0,0,0,0,0,0,0,0,0,0,0,0,0,0,0,0,0,0],"split_type":[0,0,0,0,0,0,0,0,0,0,0,0,0,0,0,0,0,0,0,0,0,0,0,0,0,0,0,0,0,0,0,0,0,0,0,0,0,0,0,0,0,0,0,0,0,0,0,0,0,0,0,0,0,0,0,0,0,0,0,0,0,0,0,0,0,0,0,0,0,0,0,0,0,0,0,0,0,0,0,0,0,0,0,0,0,0,0,0,0,0,0,0,0,0,0],"sum_hessian":[1.0923E4,5.507E3,5.416E3,3.753E3,1.754E3,1.834E3,3.582E3,6.42E2,3.111E3,6.44E2,1.11E3,9.33E2,9.01E2,5.51E2,3.031E3,2.58E2,3.84E2,1.494E3,1.617E3,3.84E2,2.6E2,5.97E2,5.13E2,3.35E2,5.98E2,5.6E2,3.41E2,5.48E2,3E0,8.09E2,2.222E3,4.4E1,2.14E2,3.8E2,4E0,2.56E2,1.238E3,8.52E2,7.65E2,3.82E2,2E0,2.59E2,1E0,5.96E2,1E0,1.28E2,3.85E2,3.34E2,1E0,5.95E2,3E0,5.56E2,4E0,2.94E2,4.7E1,3.35E2,2.13E2,2E0,1E0,3.39E2,4.7E2,4.3E1,1E0,2.12E2,2E0,2.53E2,1.27E2,8.4E1,1.72E2,2.12E2,1.026E3,4.3E1,8.09E2,8.8E1,6.77E2,1.32E2,1.27E2,2.07E2,3.89E2,8.6E1,4.2E1,3.42E2,4.3E1,4.2E1,2.92E2,4.25E2,1.7E2,1E0,2E0,2.16E2,3.4E2,2E0,2E0,1.66E2,1.28E2],"tree_param":{"num_deleted":"0","num_feature":"2","num_nodes":"95","size_leaf_vector":"1"}},{"base_weights":[1.3201086E-5,-3.5939595E-1,3.8286206E-1,-4.6272054E-1,-1.2975092E-1,1.848571E-1,4.8035976E-1,9.204212E-3,-5.6371325E-1,-2.0616585E-1,-4.933648E-2,1.1297168E-1,2.5954977E-1,4.0685067E-1,5.034379E-1,1.9810872E-1,-1.0513101E-1,-6.5798086E-1,-4.0597364E-1,-2.0955679E-1,6.0324955E-1,-8.55746E-2,-1.2897958E-2,1.0935994E-1,2.1954621E-1,2.1103719E-1,2.9204845E-1,3.7530524E-1,4.443193E-1,4.839571E-1,1.5387908E-1,4.4030878E-1,1.4649425E-1,-8.935465E-2,-4.2658198E-1,-7.2359145E-1,-5.8248466E-1,-4.4877148E-1,-3.385456E-1,-2.7413893E-1,-1.7017733E-1,-1.5498305E-2,2.5163203E-1,7.542388E-3,-9.800557E-2,1.4159058E-2,-3.1026509E-2,6.890815E-2,1.3976246E-1,2.0586957E-1,5.233288E-1,2.581139E-1,3.0286062E-1,3.7295318E-1,1.8490249E-1,1.3230121E-1,2.1550694E-1,1.4617366E-1,1.2369468E-1,1.2197936E-1,2.8853846E-1,4.8261885E-2,-2.7696705E-1,-1.04560204E-1,-7.2891023E-3,-1.7279522E-1,-2.340128E-1,-1.7664452E-1,6.7630716E-2,-1.313607E-1,-1.5763466E-1,-1.02494955E-1,3.2553364E-2,-5.2682888E-2,-8.582212E-2,-4.1932356E-2,-7.044929E-2,-4.8700776E-2,-2.4099275E-2,-8.822471E-3,4.3663457E-2,-1.8037455E-2,-4.3753313E-4,1.3638685E-2,2.599026E-2,6.380148E-2,3.7609935E-2,5.668789E-2,6.46282E-2,2.3202305E-1,2.9641343E-2,1.03465036E-1,6.555767E-2,1.2250045E-1,8.699548E-2,1.0564563E-1,1.1661667E-1],"categories":[],"categories_nodes":[],"categories_segments":[],"categories_sizes":[],"default_left":[0,0,0,0,0,0,0,0,0,0,0,0,0,0,0,0,0,0,0,0,0,0,0,0,0,0,0,0,0,0,0,0,0,0,0,0,0,0,0,0,0,0,0,0,0,0,0,0,0,0,0,0,0,0,0,0,0,0,0,0,0,0,0,0,0,0,0,0,0,0,0,0,0,0,0,0,0,0,0,0,0,0,0,0,0,0,0,0,0,0,0,0,0,0,0,0,0],"id":6,"left_children":[1,3,5,7,9,11,13,15,17,19,21,23,25,27,29,31,33,35,37,39,41,43,45,47,-1,49,51,53,55,57,-1,59,61,63,-1,65,67,69,71,73,75,-1,-1,-1,77,79,81,83,85,87,89,91,93,95,-1,-1,-1,-1,-1,-1,-1,-1,-1,-1,-1,-1,-1,-1,-1,-1,-1,-1,-1,-1,-1,-1,-1,-1,-1,-1,-1,-1,-1,-1,-1,-1,-1,-1,-1,-1,-1,-1,-1,-1,-1,-1,-1],"loss_changes":[1.5032732E3,1.3364716E2,1.0203485E2,1.852157E2,1.0743341E1,9.350868E0,5.807373E0,1.4837357E1,4.7330933E1,2.5883904E0,1.1265719E0,1.9136915E0,1.2879333E0,8.40271E-1,2.4975586E-1,3.1732645E0,8.764407E0,9.495056E0,3.3110046E0,2.2269783E0,6.603203E-1,5.9152293E-1,2.0988473E-1,1.0824642E0,0E0,4.5225143E-1,1.0895157E-1,3.6026E-2,3.2066345E-2,1.1123657E-2,0E0,4.0002537E-1,3.4554648E0,7.140849E0,0E0,8.441589E0,4.9198E0,3.8101196E-1,6.893234E-1,3.4605026E-1,1.0640106E0,0E0,0E0,0E0,4.2471123E-1,9.888294E-1,2.2017002E-1,1.5523732E-1,5.044365E-1,1.4728546E-2,4.5441186E-1,3.7119198E-1,3.9900208E-1,1.6296387E-2,0E0,0E0,0E0,0E0,0E0,0E0,0E0,0E0,0E0,0E0,0E0,0E0,0E0,0E0,0E0,0E0,0E0,0E0,0E0,0E0,0E0,0E0,0E0,0E0,0E0,0E0,0E0,0E0,0E0,0E0,0E0,0E0,0E0,0E0,0E0,0E0,0E0,0E0,0E0,0E0,0E0,0E0,0E0],"parents":[2147483647,0,0,1,1,2,2,3,3,4,4,5,5,6,6,7,7,8,8,9,9,10,10,11,11,12,12,13,13,14,14,15,15,16,16,17,17,18,18,19,19,20,20,21,21,22,22,23,23,25,25,26,26,27,27,28,28,29,29,31,31,32,32,33,33,35,35,36,36,37,37,38,38,39,39,40,40,44,44,45,45,46,46,47,47,48,48,49,49,50,50,51,51,52,52,53,53],"right_children":[2,4,6,8,10,12,14,16,18,20,22,24,26,28,30,32,34,36,38,40,42,44,46,48,-1,50,52,54,56,58,-1,60,62,64,-1,66,68,70,72,74,76,-1,-1,-1,78,80,82,84,86,88,90,92,94,96,-1,-1,-1,-1,-1,-1,-1,-1,-1,-1,-1,-1,-1,-1,-1,-1,-1,-1,-1,-1,-1,-1,-1,-1,-1,-1,-1,-1,-1,-1,-1,-1,-1,-1,-1,-1,-1,-1,-1,-1,-1,-1,-1],"split_conditions":[1.21812454E2,8.1829124E1,1.633638E2,8.214983E0,1.0209882E2,1.4215858E2,1.8383014E2,1.603367E0,5.5304714E1,2E0,1.12374916E2,2E0,1.5046263E2,1.752138E2,2.0474883E2,1.7575757E-1,2E0,3.2864983E1,7.0908585E1,9.0115654E1,8.790236E1,1.02925255E2,1.1640303E2,1.3013855E2,2.1954621E-1,2E0,1.5396498E2,2E0,2E0,2.036399E2,1.5387908E-1,2E0,2E0,2.6035354E0,-4.2658198E-1,1.3823569E1,2E0,6.908687E1,2E0,8.265101E1,9.856212E1,-1.5498305E-2,2.5163203E-1,7.542388E-3,1.0493906E2,1.154532E2,1.1924411E2,1.256266E2,1.320404E2,1.455596E2,1.4339075E2,1.5155219E2,1.5492912E2,1.688835E2,1.8490249E-1,1.3230121E-1,2.1550694E-1,1.4617366E-1,1.2369468E-1,1.2197936E-1,2.8853846E-1,4.8261885E-2,-2.7696705E-1,-1.04560204E-1,-7.2891023E-3,-1.7279522E-1,-2.340128E-1,-1.7664452E-1,6.7630716E-2,-1.313607E-1,-1.5763466E-1,-1.02494955E-1,3.2553364E-2,-5.2682888E-2,-8.582212E-2,-4.1932356E-2,-7.044929E-2,-4.8700776E-2,-2.4099275E-2,-8.822471E-3,4.3663457E-2,-1.8037455E-2,-4.3753313E-4,1.3638685E-2,2.599026E-2,6.380148E-2,3.7609935E-2,5.668789E-2,6.46282E-2,2.3202305E-1,2.9641343E-2,1.03465036E-1,6.555767E-2,1.2250045E-1,8.699548E-2,1.0564563E-1,1.1661667E-1],"split_indices":[0,0,0,0,0,0,0,0,0,1,0,1,0,0,0,0,1,0,0,0,0,0,0,0,0,1,0,1,1,0,0,1,1,0,0,0,1,0,1,0,0,0,0,0,0,0,0,0,0,0,0,0,0,0,0,0,0,0,0,0,0,0,0,0,0,0,0,0,0,0,0,0,0,0,0,0,0,0,0,0,0,0,0,0,0,0,0,0,0,0,0,0,0,0,0,0,0],"split_type":[0,0,0,0,0,0,0,0,0,0,0,0,0,0,0,0,0,0,0,0,0,0,0,0,0,0,0,0,0,0,0,0,0,0,0,0,0,0,0,0,0,0,0,0,0,0,0,0,0,0,0,0,0,0,0,0,0,0,0,0,0,0,0,0,0,0,0,0,0,0,0,0,0,0,0,0,0,0,0,0,0,0,0,0,0,0,0,0,0,0,0,0,0,0,0,0,0],"sum_hessian":[1.0923E4,5.634E3,5.289E3,3.885E3,1.749E3,1.746E3,3.543E3,6.85E2,3.2E3,8.96E2,8.53E2,8.91E2,8.55E2,8.51E2,2.692E3,2.58E2,4.27E2,2.001E3,1.199E3,8.93E2,3E0,4.27E2,4.26E2,8.87E2,4E0,3.46E2,5.09E2,4.68E2,3.83E2,8.99E2,1.793E3,4.4E1,2.14E2,4.23E2,4E0,1.066E3,9.35E2,7.3E2,4.69E2,3.36E2,5.57E2,1E0,2E0,4.3E1,3.84E2,1.71E2,2.55E2,3.82E2,5.05E2,3.42E2,4E0,1.29E2,3.8E2,4.66E2,2E0,3.81E2,2E0,8.54E2,4.5E1,4.3E1,1E0,2.12E2,2E0,8.4E1,3.39E2,2.98E2,7.68E2,9.28E2,7E0,6.45E2,8.5E1,4.66E2,3E0,3.8E1,2.98E2,3.81E2,1.76E2,8.1E1,3.03E2,1.29E2,4.2E1,1.28E2,1.27E2,1.66E2,2.16E2,8.1E1,4.24E2,1.31E2,2.11E2,2E0,2E0,3.8E1,9.1E1,3.8E1,3.42E2,2.11E2,2.55E2],"tree_param":{"num_deleted":"0","num_feature":"2","num_nodes":"97","size_leaf_vector":"1"}},{"base_weights":[1.0131002E-4,-2.5180697E-1,2.684384E-1,-3.1791735E-1,-7.517658E-2,1.2769997E-1,3.3545285E-1,7.829667E-2,-3.747306E-1,-1.2581126E-1,-3.459267E-2,6.696029E-2,1.7242968E-1,2.6120526E-1,3.4760574E-1,2.6602936E-1,3.951449E-2,-4.412655E-1,-2.7221644E-1,-1.2919754E-1,4.8130822E-1,-6.6836745E-2,-1.3029186E-2,6.395026E-2,5.942826E-1,1.4124939E-1,2.0083722E-1,2.5728667E-1,6.9062376E-1,3.2536942E-1,1.075631E-1,2.5029346E-1,2.4525777E-1,5.408229E-2,-9.9410135E-1,-2.1081156E-1,-4.608443E-1,-3.336214E-1,-2.3634431E-1,-1.5548714E-1,-9.497567E-2,-1.3173581E-2,2.0130567E-1,-2.0417948E-4,-8.922033E-2,-1.4079286E-2,7.86933E-2,4.8777074E-2,8.5426204E-2,2.6967177E-1,2.3521729E-1,1.3741457E-1,4.161838E-1,1.8087284E-1,2.1919684E-1,2.369196E-1,8.122583E-2,2.4686423E-1,4.407792E-2,3.2405555E-1,1.5857592E-1,8.621713E-2,6.225241E-2,-7.013674E-3,5.0850093E-2,-9.5445186E-1,2.3904264E-2,-1.4131637E-1,1.2886527E-2,-2.476686E-1,-1.3583939E-1,-8.775748E-2,-1.366797E-1,-7.179862E-2,7.386978E-2,-4.3215625E-2,-7.209458E-2,2.122729E-3,-4.9433887E-2,5.331032E-3,-5.4521477E-3,-6.590101E-2,-1.9642118E-2,-1.986411E-3,-1.5283499E-2,2.5843045E-2,1.192632E-2,7.6969095E-2,1.7828109E-2,1.5456033E-1,-3.320804E-2,4.818098E-2,3.845557E-2,1.6949788E-1,2.3713114E-2,6.0557432E-2,2.2400532E-2,7.032048E-2,4.395769E-2,7.565577E-2,6.37839E-2,9.797334E-2,7.818848E-2],"categories":[],"categories_nodes":[],"categories_segments":[],"categories_sizes":[],"default_left":[0,0,0,0,0,0,0,0,0,0,0,0,0,0,0,0,0,0,0,0,0,0,0,0,0,0,0,0,0,0,0,0,0,0,0,0,0,0,0,0,0,0,0,0,0,0,0,0,0,0,0,0,0,0,0,0,0,0,0,0,0,0,0,0,0,0,0,0,0,0,0,0,0,0,0,0,0,0,0,0,0,0,0,0,0,0,0,0,0,0,0,0,0,0,0,0,0,0,0,0,0,0,0],"id":7,"left_children":[1,3,5,7,9,11,13,15,17,19,21,23,25,27,29,31,33,35,37,39,41,43,45,47,49,51,53,55,57,59,-1,61,-1,63,65,67,69,71,73,75,77,-1,-1,79,81,83,-1,85,87,89,-1,91,93,95,97,99,-1,-1,-1,101,-1,-1,-1,-1,-1,-1,-1,-1,-1,-1,-1,-1,-1,-1,-1,-1,-1,-1,-1,-1,-1,-1,-1,-1,-1,-1,-1,-1,-1,-1,-1,-1,-1,-1,-1,-1,-1,-1,-1,-1,-1,-1,-1],"loss_changes":[7.384899E2,6.577655E1,4.9849854E1,9.23212E1,3.1520567E0,4.6288643E0,3.1422424E0,3.7390392E0,2.4339172E1,1.4663439E0,5.9291077E-1,1.1143422E0,8.42329E-1,6.77124E-1,6.314392E-1,5.590682E-1,6.4983783E0,9.707428E0,3.0358047E0,5.970144E-1,4.280253E-1,5.100664E-1,1.5201925E-1,2.3142862E-1,3.497386E-2,4.404497E-1,1.480217E-1,7.4359894E-2,1.6672814E-1,1.02386475E-1,0E0,7.845116E-2,0E0,3.78576E0,1.4346285E1,1.1379284E1,5.501404E0,2.4683914E0,1.3493614E0,3.3689785E-1,2.1239967E0,0E0,0E0,2.8423214E-2,7.786379E-1,1.4043266E-1,0E0,1.4019907E-1,1.310684E0,3.372019E-1,0E0,7.93581E-2,2.5635803E-1,5.443373E-1,2.551508E-1,2.3937225E-2,0E0,0E0,0E0,7.822418E-2,0E0,0E0,0E0,0E0,0E0,0E0,0E0,0E0,0E0,0E0,0E0,0E0,0E0,0E0,0E0,0E0,0E0,0E0,0E0,0E0,0E0,0E0,0E0,0E0,0E0,0E0,0E0,0E0,0E0,0E0,0E0,0E0,0E0,0E0,0E0,0E0,0E0,0E0,0E0,0E0,0E0,0E0,0E0],"parents":[2147483647,0,0,1,1,2,2,3,3,4,4,5,5,6,6,7,7,8,8,9,9,10,10,11,11,12,12,13,13,14,14,15,15,16,16,17,17,18,18,19,19,20,20,21,21,22,22,23,23,24,24,25,25,26,26,27,27,28,28,29,29,31,31,33,33,34,34,35,35,36,36,37,37,38,38,39,39,40,40,43,43,44,44,45,45,47,47,48,48,49,49,51,51,52,52,53,53,54,54,55,55,59,59],"right_children":[2,4,6,8,10,12,14,16,18,20,22,24,26,28,30,32,34,36,38,40,42,44,46,48,50,52,54,56,58,60,-1,62,-1,64,66,68,70,72,74,76,78,-1,-1,80,82,84,-1,86,88,90,-1,92,94,96,98,100,-1,-1,-1,102,-1,-1,-1,-1,-1,-1,-1,-1,-1,-1,-1,-1,-1,-1,-1,-1,-1,-1,-1,-1,-1,-1,-1,-1,-1,-1,-1,-1,-1,-1,-1,-1,-1,-1,-1,-1,-1,-1,-1,-1,-1,-1,-1],"split_conditions":[1.21812454E2,8.672441E1,1.6230573E2,5.002357E0,1.0209882E2,1.3828165E2,1.752138E2,3.7542087E-1,5.5304714E1,2E0,1.100729E2,2E0,1.492761E2,2E0,1.9865573E2,2E0,2E0,8.214983E0,6.627458E1,9.6047134E1,8.790236E1,1.0419394E2,2E0,1.3121246E2,1.3013855E2,2E0,1.5608232E2,1.678377E2,1.666399E2,2E0,1.075631E-1,1.7575757E-1,2.4525777E-1,2.6035354E0,6.3804716E-1,6.4419193E0,8.814983E0,6.3565826E1,2E0,9.524848E1,9.856212E1,-1.3173581E-2,2.0130567E-1,1.02925255E2,1.0493906E2,1.1992155E2,7.86933E-2,1.2375707E2,1.320404E2,1.256266E2,2.3521729E-1,1.4134125E2,1.4339075E2,1.5492912E2,1.6103384E2,1.6557626E2,8.122583E-2,2.4686423E-1,4.407792E-2,1.9774243E2,1.5857592E-1,8.621713E-2,6.225241E-2,-7.013674E-3,5.0850093E-2,-9.5445186E-1,2.3904264E-2,-1.4131637E-1,1.2886527E-2,-2.476686E-1,-1.3583939E-1,-8.775748E-2,-1.366797E-1,-7.179862E-2,7.386978E-2,-4.3215625E-2,-7.209458E-2,2.122729E-3,-4.9433887E-2,5.331032E-3,-5.4521477E-3,-6.590101E-2,-1.9642118E-2,-1.986411E-3,-1.5283499E-2,2.5843045E-2,1.192632E-2,7.6969095E-2,1.7828109E-2,1.5456033E-1,-3.320804E-2,4.818098E-2,3.845557E-2,1.6949788E-1,2.3713114E-2,6.0557432E-2,2.2400532E-2,7.032048E-2,4.395769E-2,7.565577E-2,6.37839E-2,9.797334E-2,7.818848E-2],"split_indices":[0,0,0,0,0,0,0,0,0,1,0,1,0,1,0,1,1,0,0,0,0,0,1,0,0,1,0,0,0,1,0,0,0,0,0,0,0,0,1,0,0,0,0,0,0,0,0,0,0,0,0,0,0,0,0,0,0,0,0,0,0,0,0,0,0,0,0,0,0,0,0,0,0,0,0,0,0,0,0,0,0,0,0,0,0,0,0,0,0,0,0,0,0,0,0,0,0,0,0,0,0,0,0],"split_type":[0,0,0,0,0,0,0,0,0,0,0,0,0,0,0,0,0,0,0,0,0,0,0,0,0,0,0,0,0,0,0,0,0,0,0,0,0,0,0,0,0,0,0,0,0,0,0,0,0,0,0,0,0,0,0,0,0,0,0,0,0,0,0,0,0,0,0,0,0,0,0,0,0,0,0,0,0,0,0,0,0,0,0,0,0,0,0,0,0,0,0,0,0,0,0,0,0,0,0,0,0,0,0],"sum_hessian":[1.0923E4,5.634E3,5.289E3,4.099E3,1.535E3,1.707E3,3.582E3,5.14E2,3.585E3,6.82E2,8.53E2,7.25E2,9.82E2,5.07E2,3.075E3,8.7E1,4.27E2,2.172E3,1.413E3,6.79E2,3E0,3.41E2,5.12E2,7.22E2,3E0,4.71E2,5.11E2,5.04E2,3E0,1.024E3,2.051E3,8.6E1,1E0,4.22E2,5E0,1.71E2,2.001E3,5.18E2,8.95E2,3.82E2,2.97E2,1E0,2E0,8.6E1,2.55E2,5.11E2,1E0,4.25E2,2.97E2,2E0,1E0,4.66E2,5E0,2.5E2,2.61E2,2.08E2,2.96E2,2E0,1E0,1.02E3,4E0,4.3E1,4.3E1,2.53E2,1.69E2,1E0,4E0,8.4E1,8.7E1,4.1E1,1.96E3,3.9E2,1.28E2,8.9E2,5E0,3.39E2,4.3E1,1.21E2,1.76E2,4.3E1,4.3E1,3.8E1,2.17E2,4.26E2,8.5E1,8.1E1,3.44E2,3.8E1,2.59E2,1E0,1E0,1.28E2,3.38E2,3E0,2E0,2.08E2,4.2E1,2.14E2,4.7E1,1.22E2,8.6E1,9.77E2,4.3E1],"tree_param":{"num_deleted":"0","num_feature":"2","num_nodes":"103","size_leaf_vector":"1"}},{"base_weights":[1.3455414E-4,-1.8077882E-1,1.8408705E-1,8.9650504E-2,-2.036384E-1,7.615356E-2,2.3171492E-1,2.4201587E-2,3.4740657E-1,-2.786058E-1,-8.014854E-2,3.1887475E-2,1.06607534E-1,1.9138186E-1,2.4759437E-1,1.219511E-1,-2.7046502E-1,2.2613038E-1,-4.8614413E-2,-1.4884615E-1,-2.9424933E-1,-1.370104E-1,-4.5612585E-2,3.9803162E-2,-2.3064725E-2,1.0391108E-1,4.6772602E-1,1.892712E-1,4.8365784E-1,2.3934935E-1,7.575762E-2,4.1571613E-2,2.0263143E-1,-2.382734E-1,-4.5101276E-1,-1.5550447E-2,1.3962544E-2,-2.0418158E-1,6.627152E-2,-3.7948078E-1,-2.4228185E-1,-1.2486184E-1,-9.665978E-2,-4.7956955E-2,1.567225E-1,2.9769588E-2,5.4470416E-2,-2.8178502E-2,1.9423032E-2,8.405303E-2,1.2215413E-1,1.8506265E-1,1.897049E-2,1.6917424E-1,6.2258773E-2,-3.6898185E-2,1.8157963E-1,2.7533257E-1,2.3387367E-1,5.7208497E-2,-7.728599E-2,1.6168101E-1,8.463631E-3,-1.5508741E-2,-1.2328647E-1,-4.2404972E-2,-1.7513706E-1,-1.3717568E-1,-1.0272872E-1,5.9279036E-2,-7.611478E-2,-4.1517306E-2,1.7015759E-2,-1.9746408E-2,-6.2273024E-3,3.0234521E-2,7.1277823E-3,4.5713842E-2,2.2889748E-2,3.3231374E-2,4.1317593E-2,5.5686418E-2,4.897075E-2,7.46686E-2,9.7995035E-2,4.140071E-2,7.156016E-2],"categories":[],"categories_nodes":[],"categories_segments":[],"categories_sizes":[],"default_left":[0,0,0,0,0,0,0,0,0,0,0,0,0,0,0,0,0,0,0,0,0,0,0,0,0,0,0,0,0,0,0,0,0,0,0,0,0,0,0,0,0,0,0,0,0,0,0,0,0,0,0,0,0,0,0,0,0,0,0,0,0,0,0,0,0,0,0,0,0,0,0,0,0,0,0,0,0,0,0,0,0,0,0,0,0,0,0],"id":8,"left_children":[1,3,5,7,9,11,13,15,17,19,21,23,25,27,29,31,33,-1,35,37,39,41,43,45,47,49,51,53,55,57,-1,59,61,63,-1,-1,-1,65,-1,67,69,71,-1,73,-1,75,-1,-1,-1,77,79,-1,-1,81,-1,-1,-1,83,85,-1,-1,-1,-1,-1,-1,-1,-1,-1,-1,-1,-1,-1,-1,-1,-1,-1,-1,-1,-1,-1,-1,-1,-1,-1,-1,-1,-1],"loss_changes":[3.635782E2,3.406819E1,2.7829224E1,7.2456303E0,4.699759E1,2.2344103E0,2.3594818E0,9.941394E0,1.4037348E1,6.370697E0,3.764206E0,2.9583752E-1,9.0858364E-1,5.6607056E-1,4.9041748E-2,1.6712027E0,3.0550718E0,0E0,1.6202383E-2,7.042542E0,1.239415E1,1.5908585E0,1.6177092E0,8.380831E-1,5.412079E-1,3.436718E-1,3.8329923E-1,3.5383987E-1,5.9085846E-1,1.3795853E-1,0E0,5.8938823E0,7.5516953E0,2.7173276E0,0E0,0E0,0E0,7.0252132E0,0E0,2.9151764E0,8.872063E0,1.683279E0,0E0,5.7782507E-1,0E0,2.3448247E-1,0E0,0E0,0E0,2.3790693E-1,7.4606895E-2,0E0,0E0,1.9511223E-2,0E0,0E0,0E0,9.506893E-2,3.6828995E-1,0E0,0E0,0E0,0E0,0E0,0E0,0E0,0E0,0E0,0E0,0E0,0E0,0E0,0E0,0E0,0E0,0E0,0E0,0E0,0E0,0E0,0E0,0E0,0E0,0E0,0E0,0E0,0E0],"parents":[2147483647,0,0,1,1,2,2,3,3,4,4,5,5,6,6,7,7,8,8,9,9,10,10,11,11,12,12,13,13,14,14,15,15,16,16,18,18,19,19,20,20,21,21,22,22,23,23,24,24,25,25,26,26,27,27,28,28,29,29,31,31,32,32,33,33,37,37,39,39,40,40,41,41,43,43,45,45,49,49,50,50,53,53,57,57,58,58],"right_children":[2,4,6,8,10,12,14,16,18,20,22,24,26,28,30,32,34,-1,36,38,40,42,44,46,48,50,52,54,56,58,-1,60,62,64,-1,-1,-1,66,-1,68,70,72,-1,74,-1,76,-1,-1,-1,78,80,-1,-1,82,-1,-1,-1,84,86,-1,-1,-1,-1,-1,-1,-1,-1,-1,-1,-1,-1,-1,-1,-1,-1,-1,-1,-1,-1,-1,-1,-1,-1,-1,-1,-1,-1],"split_conditions":[1.1924411E2,3.7627945E0,1.5796094E2,2.6035354E0,7.4894615E1,1.3408905E2,1.8383014E2,1.603367E0,3.0942762E0,9.565151E0,9.255959E1,1.320404E2,2E0,2E0,2.074894E2,6.3804716E-1,2E0,2.2613038E-1,2E0,8.814983E0,3.4497475E1,9.1544106E1,2E0,1.3121246E2,1.3305319E2,1.455596E2,1.4339075E2,1.7113805E2,1.5902576E2,1.8685942E2,7.575762E-2,3.7542087E-1,9.382155E-1,2.104377E0,-4.5101276E-1,-1.5550447E-2,1.3962544E-2,8.214983E0,6.627152E-2,1.6813805E1,3.5546127E1,9.0115654E1,-9.665978E-2,1.08313805E2,1.567225E-1,1.1992155E2,5.4470416E-2,-2.8178502E-2,1.9423032E-2,1.351229E2,1.525485E2,1.8506265E-1,1.897049E-2,1.6103384E2,6.2258773E-2,-3.6898185E-2,1.8157963E-1,1.8574057E2,1.8765102E2,5.7208497E-2,-7.728599E-2,1.6168101E-1,8.463631E-3,-1.5508741E-2,-1.2328647E-1,-4.2404972E-2,-1.7513706E-1,-1.3717568E-1,-1.0272872E-1,5.9279036E-2,-7.611478E-2,-4.1517306E-2,1.7015759E-2,-1.9746408E-2,-6.2273024E-3,3.0234521E-2,7.1277823E-3,4.5713842E-2,2.2889748E-2,3.3231374E-2,4.1317593E-2,5.5686418E-2,4.897075E-2,7.46686E-2,9.7995035E-2,4.140071E-2,7.156016E-2],"split_indices":[0,0,0,0,0,0,0,0,0,0,0,0,1,1,0,0,1,0,1,0,0,0,1,0,0,0,0,0,0,0,0,0,0,0,0,0,0,0,0,0,0,0,0,0,0,0,0,0,0,0,0,0,0,0,0,0,0,0,0,0,0,0,0,0,0,0,0,0,0,0,0,0,0,0,0,0,0,0,0,0,0,0,0,0,0,0,0],"split_type":[0,0,0,0,0,0,0,0,0,0,0,0,0,0,0,0,0,0,0,0,0,0,0,0,0,0,0,0,0,0,0,0,0,0,0,0,0,0,0,0,0,0,0,0,0,0,0,0,0,0,0,0,0,0,0,0,0,0,0,0,0,0,0,0,0,0,0,0,0,0,0,0,0,0,0,0,0,0,0,0,0,0,0,0,0,0,0],"sum_hessian":[1.0923E4,5.507E3,5.416E3,4.29E2,5.078E3,1.659E3,3.757E3,3.43E2,8.6E1,3.159E3,1.919E3,6.77E2,9.82E2,1.065E3,2.692E3,2.58E2,8.5E1,4.2E1,4.4E1,3.41E2,2.818E3,7.24E2,1.195E3,5.92E2,8.5E1,9.76E2,6E0,1.059E3,6E0,1.026E3,1.666E3,1.3E2,1.28E2,8.4E1,1E0,4.3E1,1E0,2.97E2,4.4E1,1.065E3,1.753E3,6.81E2,4.3E1,1.191E3,4E0,5.54E2,3.8E1,4.7E1,3.8E1,4.7E2,5.06E2,4E0,2E0,5.09E2,5.5E2,1E0,5E0,1.29E2,8.97E2,8.7E1,4.3E1,4.3E1,8.5E1,4.1E1,4.3E1,2.56E2,4.1E1,3.4E2,7.25E2,4.4E1,1.709E3,6.34E2,4.7E1,7.18E2,4.73E2,4.2E1,5.12E2,4.6E1,4.24E2,2.97E2,2.09E2,1.27E2,3.82E2,8.9E1,4E1,4.3E1,8.54E2],"tree_param":{"num_deleted":"0","num_feature":"2","num_nodes":"87","size_leaf_vector":"1"}},{"base_weights":[1.3892338E-4,-1.2491162E-1,1.3131064E-1,6.2254872E-2,-1.4047256E-1,6.315168E-2,1.6568E-1,1.5662761E-2,2.4576557E-1,-2.0514567E-1,-6.526408E-2,3.4406923E-2,8.9019E-2,1.4092587E-1,1.734501E-1,8.594519E-2,-1.9618389E-1,1.598689E-1,-3.4065213E-2,-1.06181726E-1,-2.2521846E-1,-9.802725E-2,-2.1940622E-2,3.2356218E-2,3.740942E-1,8.75105E-2,2.7779564E-1,1.3938677E-1,1.1213184E-1,1.6247718E-1,1.7569697E-1,2.8947083E-2,1.4316075E-1,-1.6842441E-1,-3.8336083E-1,-1.0991289E-2,1.1868168E-2,-1.02376185E-1,-8.231657E-2,-4.4677407E-1,-2.0258527E-1,-1.0056639E-1,2.9429972E-1,6.812268E-2,-3.2756165E-2,6.793629E-3,4.0692523E-2,1.3659325E-1,7.3841573E-3,4.6614915E-2,8.366239E-2,1.07568346E-1,1.5176392E-2,1.31031E-1,1.492369E-1,1.7994738E-1,1.3077538E-1,6.1509486E-2,1.750518E-1,1.8118039E-2,-3.9986885E-1,3.3998545E-2,5.9425366E-1,-1.0966921E-2,-8.7141186E-2,2.8902598E-2,-3.8257234E-2,-9.348092E-2,-2.9217732E-1,-1.8872509E-2,-6.451373E-2,-3.7323598E-2,-2.5860671E-2,5.792981E-2,1.2970018E-1,-4.969958E-2,-5.82421E-3,1.0933594E-2,-3.827941E-2,1.3307123E-2,-3.2883E-3,-8.720331E-3,2.6581101E-2,4.5039784E-2,3.7934892E-2,4.6396334E-2,3.845294E-2,5.1494304E-2,6.7004725E-2,8.786842E-3,5.003637E-2,4.719049E-2,5.2829903E-2],"categories":[],"categories_nodes":[],"categories_segments":[],"categories_sizes":[],"default_left":[0,0,0,0,0,0,0,0,0,0,0,0,0,0,0,0,0,0,0,0,0,0,0,0,0,0,0,0,0,0,0,0,0,0,0,0,0,0,0,0,0,0,0,0,0,0,0,0,0,0,0,0,0,0,0,0,0,0,0,0,0,0,0,0,0,0,0,0,0,0,0,0,0,0,0,0,0,0,0,0,0,0,0,0,0,0,0,0,0,0,0,0,0],"id":9,"left_children":[1,3,5,7,9,11,13,15,17,19,21,23,25,27,29,31,33,-1,35,37,39,41,43,45,47,49,51,53,-1,55,57,59,61,63,-1,-1,-1,-1,65,67,69,71,73,-1,75,77,79,-1,-1,-1,81,-1,-1,83,85,87,89,-1,91,-1,-1,-1,-1,-1,-1,-1,-1,-1,-1,-1,-1,-1,-1,-1,-1,-1,-1,-1,-1,-1,-1,-1,-1,-1,-1,-1,-1,-1,-1,-1,-1,-1,-1],"loss_changes":[1.792038E2,1.6298279E1,1.2480179E1,3.6727152E0,2.5104118E1,1.3271475E0,6.572113E-1,5.1387105E0,7.008429E0,5.4905624E0,3.3888273E0,5.7930696E-1,2.4365997E-1,2.5323677E-1,3.7849426E-2,8.405012E-1,2.3670988E0,0E0,9.97223E-3,2.6086264E0,1.1477974E1,1.3843927E0,2.7814806E0,1.7979091E-1,1.3071114E-1,2.3120403E-1,1.10314906E-1,5.0239563E-2,0E0,2.3732471E-1,6.1798096E-3,5.690577E0,6.8475904E0,1.3573701E0,0E0,0E0,0E0,0E0,3.4691188E0,1.4873932E1,3.632698E0,4.5236397E-1,4.2238593E-2,0E0,1.7487947E0,8.375026E-1,1.2106204E-1,0E0,0E0,0E0,4.966612E-1,0E0,0E0,2.188301E-2,2.376175E-2,7.008839E-2,6.200793E-1,0E0,1.2886047E-2,0E0,0E0,0E0,0E0,0E0,0E0,0E0,0E0,0E0,0E0,0E0,0E0,0E0,0E0,0E0,0E0,0E0,0E0,0E0,0E0,0E0,0E0,0E0,0E0,0E0,0E0,0E0,0E0,0E0,0E0,0E0,0E0,0E0,0E0],"parents":[2147483647,0,0,1,1,2,2,3,3,4,4,5,5,6,6,7,7,8,8,9,9,10,10,11,11,12,12,13,13,14,14,15,15,16,16,18,18,19,19,20,20,21,21,22,22,23,23,24,24,25,25,26,26,27,27,29,29,30,30,31,31,32,32,33,33,38,38,39,39,40,40,41,41,42,42,44,44,45,45,46,46,50,50,53,53,54,54,55,55,56,56,58,58],"right_children":[2,4,6,8,10,12,14,16,18,20,22,24,26,28,30,32,34,-1,36,38,40,42,44,46,48,50,52,54,-1,56,58,60,62,64,-1,-1,-1,-1,66,68,70,72,74,-1,76,78,80,-1,-1,-1,82,-1,-1,84,86,88,90,-1,92,-1,-1,-1,-1,-1,-1,-1,-1,-1,-1,-1,-1,-1,-1,-1,-1,-1,-1,-1,-1,-1,-1,-1,-1,-1,-1,-1,-1,-1,-1,-1,-1,-1,-1],"split_conditions":[1.2084714E2,3.7627945E0,1.633638E2,2.6035354E0,6.627458E1,1.4027238E2,1.8383014E2,1.603367E0,3.0942762E0,1.2234848E1,9.766263E1,2E0,2E0,2E0,1.9491986E2,6.3804716E-1,2E0,1.598689E-1,2E0,4.363805E0,1.6813805E1,2E0,9.856212E1,1.256266E2,1.351229E2,1.4134125E2,3E0,1.752138E2,1.1213184E-1,1.90683E2,1.9574057E2,2E0,2E0,2.104377E0,-3.8336083E-1,-1.0991289E-2,1.1868168E-2,-1.02376185E-1,5.6531987E0,1.5964142E1,2.0970034E1,7.757862E1,8.790236E1,6.812268E-2,1.00374916E2,1.2487239E2,1.392591E2,1.3659325E-1,7.3841573E-3,4.6614915E-2,1.4215858E2,1.07568346E-1,1.5176392E-2,1.6557626E2,1.8168266E2,1.8953148E2,1.91916E2,6.1509486E-2,1.9865573E2,1.8118039E-2,-3.9986885E-1,3.3998545E-2,5.9425366E-1,-1.0966921E-2,-8.7141186E-2,2.8902598E-2,-3.8257234E-2,-9.348092E-2,-2.9217732E-1,-1.8872509E-2,-6.451373E-2,-3.7323598E-2,-2.5860671E-2,5.792981E-2,1.2970018E-1,-4.969958E-2,-5.82421E-3,1.0933594E-2,-3.827941E-2,1.3307123E-2,-3.2883E-3,-8.720331E-3,2.6581101E-2,4.5039784E-2,3.7934892E-2,4.6396334E-2,3.845294E-2,5.1494304E-2,6.7004725E-2,8.786842E-3,5.003637E-2,4.719049E-2,5.2829903E-2],"split_indices":[0,0,0,0,0,0,0,0,0,0,0,1,1,1,0,0,1,0,1,0,0,1,0,0,0,0,1,0,0,0,0,1,1,0,0,0,0,0,0,0,0,0,0,0,0,0,0,0,0,0,0,0,0,0,0,0,0,0,0,0,0,0,0,0,0,0,0,0,0,0,0,0,0,0,0,0,0,0,0,0,0,0,0,0,0,0,0,0,0,0,0,0,0],"split_type":[0,0,0,0,0,0,0,0,0,0,0,0,0,0,0,0,0,0,0,0,0,0,0,0,0,0,0,0,0,0,0,0,0,0,0,0,0,0,0,0,0,0,0,0,0,0,0,0,0,0,0,0,0,0,0,0,0,0,0,0,0,0,0,0,0,0,0,0,0,0,0,0,0,0,0,0,0,0,0,0,0,0,0,0,0,0,0,0,0,0,0,0,0],"sum_hessian":[1.0923E4,5.592E3,5.331E3,4.29E2,5.163E3,1.788E3,3.543E3,3.43E2,8.6E1,2.775E3,2.388E3,8.48E2,9.4E2,8.51E2,2.692E3,2.58E2,8.5E1,4.2E1,4.4E1,4.69E2,2.306E3,1.359E3,1.029E3,8.44E2,4E0,9.34E2,6E0,8.47E2,4E0,4.7E2,2.222E3,1.3E2,1.28E2,8.4E1,1E0,4.3E1,1E0,4.2E1,4.27E2,2.12E2,2.094E3,1.351E3,8E0,4.2E1,9.87E2,2.08E2,6.36E2,3E0,1E0,4.8E1,8.86E2,4E0,2E0,4.66E2,3.81E2,3E2,1.7E2,4.1E1,2.181E3,1.28E2,2E0,1.27E2,1E0,4.1E1,4.3E1,8.6E1,3.41E2,1.7E2,4.2E1,1.72E2,1.922E3,5.05E2,8.46E2,6E0,2E0,8.9E1,8.98E2,1.71E2,3.7E1,5.94E2,4.2E1,3.7E1,8.49E2,8.4E1,3.82E2,2.98E2,8.3E1,2.56E2,4.4E1,4.5E1,1.25E2,1.3E2,2.051E3],"tree_param":{"num_deleted":"0","num_feature":"2","num_nodes":"93","size_leaf_vector":"1"}},{"base_weights":[1.3518916E-4,-9.182629E-2,8.799813E-2,2.5423821E-2,-1.0549158E-1,3.432032E-2,1.1411372E-1,3.3604763E-2,-5.412166E-1,-1.787516E-1,-6.636067E-2,1.5507695E-2,5.6039613E-2,9.456151E-2,1.2142192E-1,9.849685E-2,4.3917703E-3,2.598683E-1,-8.660269E-1,-1.7113334E-1,-1.6850524E-1,-8.61029E-2,-2.6022602E-2,1.3826239E-2,3.4129906E-1,5.5073995E-2,1.8253009E-1,9.330434E-2,2.6441997E-1,1.360945E-1,1.20407455E-1,4.2416003E-2,7.9334624E-2,-6.648478E-2,6.120602E-2,-7.3971087E-1,-1.8846379E-1,1.03058234E-1,-1.8299097E-1,-8.356341E-2,-6.073901E-2,-2.7508855E-2,1.0817779E-1,3.4982663E-2,9.089615E-3,1.738131E-1,1.5168643E-1,5.0001536E-2,7.014988E-2,2.4344254E-1,1.2141038E-2,8.168885E-2,1.0012035E-1,-4.7498707E-2,3.612663E-1,1.20828606E-1,5.4242037E-2,1.4165432E-2,1.216371E-1,3.0735629E-2,-2.4011634E-2,-5.3592995E-3,-6.1593015E-2,1.1302349E-1,-5.690041E-3,5.051156E-1,-2.6989323E-1,-2.7952256E-2,-6.229657E-2,-2.6127292E-2,1.9613933E-2,-1.3585242E-2,-6.519583E-3,-5.6205653E-3,5.8440007E-3,1.0271521E-1,-4.9784947E-2,1.6274279E-2,-5.654783E-4,3.409143E-2,1.2588723E-2,6.2765125E-3,9.3192674E-2,3.1199189E-2,2.106466E-2,3.0663809E-2,2.1069031E-2,1.3920537E-1,5.8165815E-2,3.3551168E-2,4.053818E-2,3.1590525E-2,3.683875E-2],"categories":[],"categories_nodes":[],"categories_segments":[],"categories_sizes":[],"default_left":[0,0,0,0,0,0,0,0,0,0,0,0,0,0,0,0,0,0,0,0,0,0,0,0,0,0,0,0,0,0,0,0,0,0,0,0,0,0,0,0,0,0,0,0,0,0,0,0,0,0,0,0,0,0,0,0,0,0,0,0,0,0,0,0,0,0,0,0,0,0,0,0,0,0,0,0,0,0,0,0,0,0,0,0,0,0,0,0,0,0,0,0,0],"id":10,"left_children":[1,3,5,7,9,11,13,15,17,19,21,23,25,27,29,31,33,-1,35,-1,37,39,41,43,45,47,49,51,53,55,57,59,-1,61,63,-1,65,-1,67,69,-1,71,-1,-1,73,75,-1,77,79,81,-1,83,85,-1,87,89,-1,-1,91,-1,-1,-1,-1,-1,-1,-1,-1,-1,-1,-1,-1,-1,-1,-1,-1,-1,-1,-1,-1,-1,-1,-1,-1,-1,-1,-1,-1,-1,-1,-1,-1,-1,-1],"loss_changes":[8.827406E1,8.555531E0,7.8280907E0,2.604882E0,1.3693977E1,7.468631E-1,5.255089E-1,1.0440935E0,4.4073954E0,6.582226E0,2.4808216E0,5.332247E-1,9.364581E-2,1.9463539E-1,2.4276733E-2,1.5802327E0,1.5382793E0,0E0,7.1224737E0,0E0,1.2100922E1,6.015558E-1,5.9946793E-1,4.7507203E-1,4.9724817E-2,6.103468E-2,4.2067185E-2,7.2654724E-2,3.4379077E-1,9.350824E-2,2.250061E-1,9.565703E-1,0E0,1.143789E0,5.370247E0,0E0,9.503502E0,0E0,3.4785538E0,1.082777E0,0E0,1.0406393E-1,0E0,0E0,2.7097258E-1,2.8591514E-1,0E0,1.4000082E-1,2.526542E-1,5.3314164E-2,0E0,9.072733E-2,3.278494E-2,0E0,1.32249E-2,1.4725924E-3,0E0,0E0,3.479004E-2,0E0,0E0,0E0,0E0,0E0,0E0,0E0,0E0,0E0,0E0,0E0,0E0,0E0,0E0,0E0,0E0,0E0,0E0,0E0,0E0,0E0,0E0,0E0,0E0,0E0,0E0,0E0,0E0,0E0,0E0,0E0,0E0,0E0,0E0],"parents":[2147483647,0,0,1,1,2,2,3,3,4,4,5,5,6,6,7,7,8,8,9,9,10,10,11,11,12,12,13,13,14,14,15,15,16,16,18,18,20,20,21,21,22,22,23,23,24,24,25,25,26,26,27,27,28,28,29,29,30,30,31,31,33,33,34,34,36,36,38,38,39,39,41,41,44,44,45,45,47,47,48,48,49,49,51,51,52,52,54,54,55,55,58,58],"right_children":[2,4,6,8,10,12,14,16,18,20,22,24,26,28,30,32,34,-1,36,-1,38,40,42,44,46,48,50,52,54,56,58,60,-1,62,64,-1,66,-1,68,70,-1,72,-1,-1,74,76,-1,78,80,82,-1,84,86,-1,88,90,-1,-1,92,-1,-1,-1,-1,-1,-1,-1,-1,-1,-1,-1,-1,-1,-1,-1,-1,-1,-1,-1,-1,-1,-1,-1,-1,-1,-1,-1,-1,-1,-1,-1,-1,-1,-1],"split_conditions":[1.154532E2,5.6531987E0,1.5796094E2,2E0,4.389276E1,1.372229E2,1.8309882E2,9.382155E-1,1.7575757E-1,6.4419193E0,9.255959E1,2E0,2E0,2E0,1.8685942E2,6.3804716E-1,2.6035354E0,2.598683E-1,6.3804716E-1,-1.7113334E-1,7.3531985E0,9.1544106E1,2E0,1.1640303E2,1.3013855E2,1.525485E2,1.4339075E2,1.678377E2,1.5902576E2,1.8574057E2,1.8765102E2,3.7542087E-1,7.9334624E-2,2.104377E0,3.0942762E0,-7.3971087E-1,9.382155E-1,1.03058234E-1,1.3823569E1,9.0115654E1,-6.073901E-2,9.766263E1,1.0817779E-1,3.4982663E-2,1.21812454E2,1.256266E2,1.5168643E-1,1.5155219E2,1.5492912E2,1.392591E2,1.2141038E-2,1.6103384E2,1.8168266E2,-4.7498707E-2,1.666399E2,1.8504546E2,5.4242037E-2,1.4165432E-2,1.91916E2,3.0735629E-2,-2.4011634E-2,-5.3592995E-3,-6.1593015E-2,1.1302349E-1,-5.690041E-3,5.051156E-1,-2.6989323E-1,-2.7952256E-2,-6.229657E-2,-2.6127292E-2,1.9613933E-2,-1.3585242E-2,-6.519583E-3,-5.6205653E-3,5.8440007E-3,1.0271521E-1,-4.9784947E-2,1.6274279E-2,-5.654783E-4,3.409143E-2,1.2588723E-2,6.2765125E-3,9.3192674E-2,3.1199189E-2,2.106466E-2,3.0663809E-2,2.1069031E-2,1.3920537E-1,5.8165815E-2,3.3551168E-2,4.053818E-2,3.1590525E-2,3.683875E-2],"split_indices":[0,0,0,1,0,0,0,0,0,0,0,1,1,1,0,0,0,0,0,0,0,0,1,0,0,0,0,0,0,0,0,0,0,0,0,0,0,0,0,0,0,0,0,0,0,0,0,0,0,0,0,0,0,0,0,0,0,0,0,0,0,0,0,0,0,0,0,0,0,0,0,0,0,0,0,0,0,0,0,0,0,0,0,0,0,0,0,0,0,0,0,0,0],"split_type":[0,0,0,0,0,0,0,0,0,0,0,0,0,0,0,0,0,0,0,0,0,0,0,0,0,0,0,0,0,0,0,0,0,0,0,0,0,0,0,0,0,0,0,0,0,0,0,0,0,0,0,0,0,0,0,0,0,0,0,0,0,0,0,0,0,0,0,0,0,0,0,0,0,0,0,0,0,0,0,0,0,0,0,0,0,0,0,0,0,0,0,0,0],"sum_hessian":[1.0923E4,5.337E3,5.586E3,5.57E2,4.78E3,1.829E3,3.757E3,5.5E2,7E0,1.663E3,3.117E3,9.81E2,8.48E2,1.026E3,2.731E3,1.7E2,3.8E2,1E0,6E0,4.1E1,1.622E3,2.092E3,1.025E3,9.77E2,4E0,8.43E2,5E0,1.02E3,6E0,1.68E2,2.563E3,1.28E2,4.2E1,1.69E2,2.11E2,1E0,5E0,4.4E1,1.578E3,2.049E3,4.3E1,1.022E3,3E0,4.2E1,9.35E2,3E0,1E0,6.34E2,2.09E2,3E0,2E0,3.82E2,6.38E2,1E0,5E0,1.28E2,4E1,4.3E1,2.52E3,8.6E1,4.2E1,1.26E2,4.3E1,4.2E1,1.69E2,1E0,4E0,3.41E2,1.237E3,2.002E3,4.7E1,2.49E2,7.73E2,2.54E2,6.81E2,2E0,1E0,5.86E2,4.8E1,8.1E1,1.28E2,1E0,2E0,1.27E2,2.55E2,5.94E2,4.4E1,2E0,3E0,8.4E1,4.4E1,1.73E2,2.347E3],"tree_param":{"num_deleted":"0","num_feature":"2","num_nodes":"93","size_leaf_vector":"1"}},{"base_weights":[1.5172687E-4,-6.591296E-2,6.0356554E-2,1.7584825E-2,-7.591422E-2,2.1053221E-2,7.949152E-2,2.375275E-2,-4.094292E-1,-1.2805969E-1,-4.907863E-2,1.9933093E-2,2.2773981E-1,6.1555006E-2,8.427479E-2,9.251836E-3,1.03143044E-1,2.20888E-1,-6.782886E-1,-1.1902353E-1,-1.2804253E-1,1.1787962E-1,-5.148691E-2,7.707987E-3,3.5935856E-2,2.7253377E-1,9.712792E-3,6.09417E-2,1.484764E-1,7.878085E-2,8.623872E-2,3.401358E-2,-7.071045E-2,5.1286872E-2,9.879352E-3,-6.2875426E-1,-9.27209E-2,-1.2101567E-1,-1.1094975E-1,4.349937E-2,-1.5723096E-1,-8.0146566E-2,-4.8439216E-2,1.1007494E-2,-2.3635337E-2,3.9360512E-2,-7.748076E-3,1.3490152E-1,9.843985E-2,5.327923E-2,6.530596E-2,-4.03739E-2,2.5288534E-1,8.4572285E-2,5.66446E-2,2.987582E-2,8.537569E-2,3.4389894E-3,3.6831107E-2,4.293483E-1,-2.0511885E-1,7.2827786E-2,-3.6555123E-2,-1.968521E-2,-8.036166E-3,2.1713362E-3,2.6668338E-2,1.0323607E-2,3.9178863E-2,8.217211E-2,-4.231725E-2,1.999304E-2,5.8213505E-3,2.7932314E-2,1.8706637E-2,1.11364365E-1,-1.5315343E-2,2.4369342E-2,3.8083345E-2,-3.0631109E-3,2.4180725E-2,9.649022E-3,2.5942529E-2],"categories":[],"categories_nodes":[],"categories_segments":[],"categories_sizes":[],"default_left":[0,0,0,0,0,0,0,0,0,0,0,0,0,0,0,0,0,0,0,0,0,0,0,0,0,0,0,0,0,0,0,0,0,0,0,0,0,0,0,0,0,0,0,0,0,0,0,0,0,0,0,0,0,0,0,0,0,0,0,0,0,0,0,0,0,0,0,0,0,0,0,0,0,0,0,0,0,0,0,0,0,0,0],"id":11,"left_children":[1,3,5,7,9,11,13,15,17,19,21,23,25,27,29,31,33,-1,35,37,-1,39,41,43,45,47,-1,49,51,53,55,57,-1,-1,-1,-1,59,-1,61,-1,-1,-1,63,65,-1,67,-1,69,-1,71,73,-1,75,77,79,-1,81,-1,-1,-1,-1,-1,-1,-1,-1,-1,-1,-1,-1,-1,-1,-1,-1,-1,-1,-1,-1,-1,-1,-1,-1,-1,-1],"loss_changes":[4.345324E1,4.351282E0,4.297146E0,1.4793804E0,6.5035095E0,4.29089E-1,3.2460976E-1,6.3337445E-1,2.9637256E0,4.2144756E0,1.2416673E0,3.6438763E-1,7.868767E-2,3.4291744E-2,2.5922775E-2,2.8405924E0,3.9908004E-1,0E0,5.616208E0,3.479414E0,0E0,8.420105E-1,1.9786501E0,3.0280182E-1,1.7171013E-1,1.6952097E-2,0E0,2.3574114E-2,1.8180113E-1,9.9051476E-2,1.7103195E-2,8.492261E-1,0E0,0E0,0E0,0E0,6.3822904E0,0E0,5.78994E0,0E0,0E0,0E0,1.1099749E0,2.9883987E-1,0E0,3.4088743E-1,0E0,1.9207594E-1,0E0,1.3406706E-1,3.6111355E-2,0E0,1.628092E-1,8.0293655E-2,2.7471346E-1,0E0,1.1977863E-1,0E0,0E0,0E0,0E0,0E0,0E0,0E0,0E0,0E0,0E0,0E0,0E0,0E0,0E0,0E0,0E0,0E0,0E0,0E0,0E0,0E0,0E0,0E0,0E0,0E0,0E0],"parents":[2147483647,0,0,1,1,2,2,3,3,4,4,5,5,6,6,7,7,8,8,9,9,10,10,11,11,12,12,13,13,14,14,15,15,16,16,18,18,19,19,21,21,22,22,23,23,24,24,25,25,27,27,28,28,29,29,30,30,31,31,36,36,38,38,42,42,43,43,45,45,47,47,49,49,50,50,52,52,53,53,54,54,56,56],"right_children":[2,4,6,8,10,12,14,16,18,20,22,24,26,28,30,32,34,-1,36,38,-1,40,42,44,46,48,-1,50,52,54,56,58,-1,-1,-1,-1,60,-1,62,-1,-1,-1,64,66,-1,68,-1,70,-1,72,74,-1,76,78,80,-1,82,-1,-1,-1,-1,-1,-1,-1,-1,-1,-1,-1,-1,-1,-1,-1,-1,-1,-1,-1,-1,-1,-1,-1,-1,-1,-1],"split_conditions":[1.12374916E2,5.6531987E0,1.5608232E2,2E0,4.1919025E1,2E0,1.7646632E2,4.363805E0,1.7575757E-1,4.0643433E1,4.285505E1,1.3599277E2,1.4339075E2,2E0,1.9491986E2,3.7627945E0,5.002357E0,2.20888E-1,6.3804716E-1,6.4419193E0,-1.2804253E-1,2E0,4.389276E1,1.351229E2,1.5492912E2,1.3013855E2,9.712792E-3,1.633638E2,1.5902576E2,1.90683E2,1.9774243E2,2.6035354E0,-7.071045E-2,5.1286872E-2,9.879352E-3,-6.2875426E-1,9.382155E-1,-1.2101567E-1,7.3531985E0,4.349937E-2,-1.5723096E-1,-8.0146566E-2,8.1829124E1,1.3408905E2,-2.3635337E-2,1.5396498E2,-7.748076E-3,1.256266E2,9.843985E-2,1.6103384E2,1.6437491E2,-4.03739E-2,1.666399E2,1.8953148E2,1.91916E2,2.987582E-2,1.9865573E2,3.4389894E-3,3.6831107E-2,4.293483E-1,-2.0511885E-1,7.2827786E-2,-3.6555123E-2,-1.968521E-2,-8.036166E-3,2.1713362E-3,2.6668338E-2,1.0323607E-2,3.9178863E-2,8.217211E-2,-4.231725E-2,1.999304E-2,5.8213505E-3,2.7932314E-2,1.8706637E-2,1.11364365E-1,-1.5315343E-2,2.4369342E-2,3.8083345E-2,-3.0631109E-3,2.4180725E-2,9.649022E-3,2.5942529E-2],"split_indices":[0,0,0,1,0,1,0,0,0,0,0,0,0,1,0,0,0,0,0,0,0,1,0,0,0,0,0,0,0,0,0,0,0,0,0,0,0,0,0,0,0,0,0,0,0,0,0,0,0,0,0,0,0,0,0,0,0,0,0,0,0,0,0,0,0,0,0,0,0,0,0,0,0,0,0,0,0,0,0,0,0,0,0],"split_type":[0,0,0,0,0,0,0,0,0,0,0,0,0,0,0,0,0,0,0,0,0,0,0,0,0,0,0,0,0,0,0,0,0,0,0,0,0,0,0,0,0,0,0,0,0,0,0,0,0,0,0,0,0,0,0,0,0,0,0,0,0,0,0,0,0,0,0,0,0,0,0,0,0,0,0,0,0,0,0,0,0,0,0],"sum_hessian":[1.0923E4,5.208E3,5.715E3,5.57E2,4.651E3,1.872E3,3.843E3,5.5E2,7E0,1.579E3,3.072E3,1.863E3,9E0,8.12E2,3.031E3,4.66E2,8.4E1,1E0,6E0,1.534E3,4.5E1,4.3E1,3.029E3,1.057E3,8.06E2,7E0,2E0,8.08E2,4E0,8.09E2,2.222E3,4.24E2,4.2E1,4.2E1,4.2E1,1E0,5E0,4.1E1,1.493E3,4.2E1,1E0,4.1E1,2.988E3,1.019E3,3.8E1,7.64E2,4.2E1,3E0,4E0,2.98E2,5.1E2,1E0,3E0,6.39E2,1.7E2,1.28E2,2.094E3,3.39E2,8.5E1,1E0,4E0,4.4E1,1.449E3,1.665E3,1.323E3,9.73E2,4.6E1,7.26E2,3.8E1,2E0,1E0,2.13E2,8.5E1,4.6E1,4.64E2,2E0,1E0,5.95E2,4.4E1,4.5E1,1.25E2,4.3E1,2.051E3],"tree_param":{"num_deleted":"0","num_feature":"2","num_nodes":"83","size_leaf_vector":"1"}},{"base_weights":[9.563566E-5,-4.1591834E-2,4.7308326E-2,-6.182812E-2,-2.0082291E-2,2.5084166E-2,5.720304E-2,-3.4469757E-3,-8.689882E-2,1.1740054E-1,-2.4563543E-2,2.4366817E-2,1.3527146E-1,4.760942E-2,5.964493E-2,6.559325E-2,-1.998906E-2,-1.7312357E-1,-7.656957E-2,3.701622E-3,6.708115E-2,-5.0729234E-2,-1.9904215E-2,1.8236065E-2,3.5746396E-2,-3.596964E-2,1.7694579E-1,4.6538018E-2,5.771078E-2,2.5275255E-2,5.921571E-2,8.285734E-3,2.3472261E-1,-4.529226E-2,6.115523E-2,4.658993E-1,-8.843002E-2,4.0536304E-3,-6.2722355E-2,-2.1153022E-2,2.5555536E-1,3.0852446E-2,1.3032324E-2,6.461519E-2,3.0756503E-2,1.1416741E-1,1.0392451E-1,1.8397912E-2,4.4488415E-2,7.7406056E-3,5.9744406E-2,7.899241E-3,-2.3112422E-1,5.508015E-2,3.649461E-1,-6.998056E-3,-9.375169E-2,7.697622E-2,-2.2478572E-3,1.4780669E-1,-1.029085E-1,-1.0464282E-1,-2.119367E-2,-1.0322408E-2,-1.8495139E-3,1.12126544E-1,5.8361966E-2,5.7611763E-3,3.2315463E-2,-2.6164843E-2,6.029974E-3,8.822952E-3,3.0261556E-2,-3.4331344E-3,1.0675096E-2,1.4344434E-2,7.45039E-2,4.2949277E-3,1.3979306E-2,2.154015E-2,1.7677939E-2],"categories":[],"categories_nodes":[],"categories_segments":[],"categories_sizes":[],"default_left":[0,0,0,0,0,0,0,0,0,0,0,0,0,0,0,0,0,0,0,0,0,0,0,0,0,0,0,0,0,0,0,0,0,0,0,0,0,0,0,0,0,0,0,0,0,0,0,0,0,0,0,0,0,0,0,0,0,0,0,0,0,0,0,0,0,0,0,0,0,0,0,0,0,0,0,0,0,0,0,0,0],"id":12,"left_children":[1,3,5,7,9,11,13,15,17,19,21,23,25,27,29,31,33,-1,35,37,-1,-1,39,41,43,-1,45,47,-1,-1,49,51,53,55,57,59,61,-1,-1,63,65,67,69,71,73,-1,75,-1,77,-1,79,-1,-1,-1,-1,-1,-1,-1,-1,-1,-1,-1,-1,-1,-1,-1,-1,-1,-1,-1,-1,-1,-1,-1,-1,-1,-1,-1,-1,-1,-1],"loss_changes":[2.150234E1,2.5242138E0,1.1251221E0,4.374569E0,1.7365755E0,1.2159151E-1,8.018494E-2,1.0280313E0,1.0542936E1,1.0738653E0,1.8324066E0,1.0894954E-1,1.2755609E-1,1.0333693E-1,2.4804115E-2,1.6845301E0,1.4934006E0,0E0,1.3224312E1,9.467221E-2,0E0,0E0,9.142425E-1,6.67603E-2,7.70973E-2,0E0,9.426293E-2,1.9095063E-2,0E0,0E0,4.7498703E-2,1.8610569E0,1.9850068E0,3.2443852E0,2.3228981E0,1.1225262E0,9.264553E0,0E0,0E0,5.2247727E-1,1.383394E-2,2.6475245E-1,5.16135E-1,9.914762E-2,9.6149564E-2,0E0,5.295313E-2,0E0,3.980851E-2,0E0,2.2709846E-2,0E0,0E0,0E0,0E0,0E0,0E0,0E0,0E0,0E0,0E0,0E0,0E0,0E0,0E0,0E0,0E0,0E0,0E0,0E0,0E0,0E0,0E0,0E0,0E0,0E0,0E0,0E0,0E0,0E0,0E0],"parents":[2147483647,0,0,1,1,2,2,3,3,4,4,5,5,6,6,7,7,8,8,9,9,10,10,11,11,12,12,13,13,14,14,15,15,16,16,18,18,19,19,22,22,23,23,24,24,26,26,27,27,30,30,31,31,32,32,33,33,34,34,35,35,36,36,39,39,40,40,41,41,42,42,43,43,44,44,46,46,48,48,50,50],"right_children":[2,4,6,8,10,12,14,16,18,20,22,24,26,28,30,32,34,-1,36,38,-1,-1,40,42,44,-1,46,48,-1,-1,50,52,54,56,58,60,62,-1,-1,64,66,68,70,72,74,-1,76,-1,78,-1,80,-1,-1,-1,-1,-1,-1,-1,-1,-1,-1,-1,-1,-1,-1,-1,-1,-1,-1,-1,-1,-1,-1,-1,-1,-1,-1,-1,-1,-1,-1],"split_conditions":[1.256266E2,6.1394108E1,1.633638E2,1.2234848E1,6.3565826E1,2E0,1.8092677E2,9.382155E-1,1.297862E1,6.2249325E1,6.543805E1,1.492761E2,1.3013855E2,2E0,1.8168266E2,6.3804716E-1,8.814983E0,-1.7312357E-1,1.3823569E1,2E0,6.708115E-2,-5.0729234E-2,2E0,1.320404E2,1.5155219E2,-3.596964E-2,1.351229E2,1.6557626E2,5.771078E-2,2.5275255E-2,1.8309882E2,2E0,2E0,8.214983E0,9.565151E0,2E0,1.6813805E1,4.0536304E-3,-6.2722355E-2,9.766263E1,7.0908585E1,1.3121246E2,1.3305319E2,1.5046263E2,1.525485E2,1.1416741E-1,1.5902576E2,1.8397912E-2,1.666399E2,7.7406056E-3,1.8685942E2,7.899241E-3,-2.3112422E-1,5.508015E-2,3.649461E-1,-6.998056E-3,-9.375169E-2,7.697622E-2,-2.2478572E-3,1.4780669E-1,-1.029085E-1,-1.0464282E-1,-2.119367E-2,-1.0322408E-2,-1.8495139E-3,1.12126544E-1,5.8361966E-2,5.7611763E-3,3.2315463E-2,-2.6164843E-2,6.029974E-3,8.822952E-3,3.0261556E-2,-3.4331344E-3,1.0675096E-2,1.4344434E-2,7.45039E-2,4.2949277E-3,1.3979306E-2,2.154015E-2,1.7677939E-2],"split_indices":[0,0,0,0,0,1,0,0,0,0,0,0,0,1,0,0,0,0,0,1,0,0,1,0,0,0,0,0,0,0,0,1,1,0,0,1,0,0,0,0,0,0,0,0,0,0,0,0,0,0,0,0,0,0,0,0,0,0,0,0,0,0,0,0,0,0,0,0,0,0,0,0,0,0,0,0,0,0,0,0,0],"split_type":[0,0,0,0,0,0,0,0,0,0,0,0,0,0,0,0,0,0,0,0,0,0,0,0,0,0,0,0,0,0,0,0,0,0,0,0,0,0,0,0,0,0,0,0,0,0,0,0,0,0,0,0,0,0,0,0,0,0,0,0,0,0,0,0,0,0,0,0,0,0,0,0,0,0,0,0,0,0,0,0,0],"sum_hessian":[1.0923E4,5.801E3,5.122E3,2.988E3,2.813E3,1.579E3,3.543E3,8.98E2,2.09E3,8.8E1,2.725E3,1.57E3,9E0,7.23E2,2.82E3,1.73E2,7.25E2,4.2E1,2.048E3,4.3E1,4.5E1,8.4E1,2.641E3,1.022E3,5.48E2,1E0,8E0,7.19E2,4E0,4.5E1,2.775E3,1.3E2,4.3E1,5.53E2,1.72E2,4.3E1,2.005E3,4.2E1,1E0,2.63E3,1.1E1,2.97E2,7.25E2,7.9E1,4.69E2,1E0,7E0,8.4E1,6.35E2,4.4E1,2.731E3,1.28E2,2E0,4.2E1,1E0,5.12E2,4.1E1,4.4E1,1.28E2,4.2E1,1E0,1.27E2,1.878E3,1.395E3,1.235E3,2E0,9E0,2.59E2,3.8E1,4.7E1,6.78E2,4.1E1,3.8E1,4.8E1,4.21E2,6E0,1E0,4.2E1,5.93E2,1.68E2,2.563E3],"tree_param":{"num_deleted":"0","num_feature":"2","num_nodes":"81","size_leaf_vector":"1"}},{"base_weights":[1.06294094E-4,-3.25349E-2,2.9852249E-2,2.4141518E-2,-3.7063207E-2,1.0883688E-2,3.9086968E-2,-2.562297E-3,7.1163185E-2,-6.429827E-2,-2.324698E-2,1.0144639E-2,1.4755411E-1,2.9176874E-2,4.122283E-2,2.9965553E-2,-1.0049429E-1,-2.896462E-2,-1.2465335E-1,7.218229E-2,-2.6999421E-2,2.0284882E-2,8.750407E-3,1.78316E-1,4.901314E-3,3.1421486E-2,-2.3409105E-3,4.1027706E-2,8.899093E-2,1.1938811E-1,1.1109829E-2,-8.178989E-2,-2.5355518E-1,-7.217437E-2,1.3416131E-1,-2.0159084E-1,-4.781294E-2,-1.583718E-1,-2.3314089E-2,-1.0516443E-2,1.0941937E-2,7.7671055E-3,5.8917742E-2,2.8375663E-2,2.0890739E-2,3.9106302E-2,4.551505E-2,5.3899005E-2,1.5867034E-2,2.6520291E-2,2.2242337E-1,-1.6675498E-2,1.680118E-2,-5.143159E-3,-4.2491585E-2,-6.7090113E-3,-7.795788E-2,8.7683685E-2,7.322187E-3,-6.487731E-2,1.6520499E-1,1.7991008E-2,-5.7596534E-2,-5.1396256E-3,-8.424496E-2,3.0192854E-2,-7.531929E-3,2.4637468E-2,2.7382558E-3,1.0445908E-2,7.413858E-3,1.1963763E-2,3.4956498E-5,1.2935603E-2,1.3967434E-2],"categories":[],"categories_nodes":[],"categories_segments":[],"categories_sizes":[],"default_left":[0,0,0,0,0,0,0,0,0,0,0,0,0,0,0,0,0,0,0,0,0,0,0,0,0,0,0,0,0,0,0,0,0,0,0,0,0,0,0,0,0,0,0,0,0,0,0,0,0,0,0,0,0,0,0,0,0,0,0,0,0,0,0,0,0,0,0,0,0,0,0,0,0,0,0],"id":13,"left_children":[1,3,5,7,9,11,13,15,-1,17,19,21,23,25,27,29,31,33,35,-1,37,-1,39,41,-1,43,-1,45,47,49,51,53,-1,55,57,59,61,63,65,-1,67,-1,-1,69,-1,71,73,-1,-1,-1,-1,-1,-1,-1,-1,-1,-1,-1,-1,-1,-1,-1,-1,-1,-1,-1,-1,-1,-1,-1,-1,-1,-1,-1,-1],"loss_changes":[1.0607558E1,1.3377762E0,1.0008421E0,2.1968544E0,1.8137083E0,1.876877E-1,8.016157E-2,1.0988292E0,0E0,3.457543E0,3.1767926E0,1.4876834E-1,3.7451357E-2,5.710399E-2,2.5802612E-2,4.3538058E-1,1.1287637E0,7.234529E0,3.5315952E0,0E0,1.5252562E0,0E0,1.7520033E-1,1.6957909E-2,0E0,7.321459E-2,0E0,2.5370598E-2,2.9777758E-2,8.0182093E-1,6.4686686E-1,3.264352E-1,0E0,7.5760565E0,3.7239854E0,3.4181023E0,4.6889524E0,1.4824781E0,6.8526435E-1,0E0,2.2333534E-1,0E0,0E0,1.3301402E-2,0E0,6.6655636E-2,3.3700466E-4,0E0,0E0,0E0,0E0,0E0,0E0,0E0,0E0,0E0,0E0,0E0,0E0,0E0,0E0,0E0,0E0,0E0,0E0,0E0,0E0,0E0,0E0,0E0,0E0,0E0,0E0,0E0,0E0],"parents":[2147483647,0,0,1,1,2,2,3,3,4,4,5,5,6,6,7,7,9,9,10,10,11,11,12,12,13,13,14,14,15,15,16,16,17,17,18,18,20,20,22,22,23,23,25,25,27,27,28,28,29,29,30,30,31,31,33,33,34,34,35,35,36,36,37,37,38,38,40,40,43,43,45,45,46,46],"right_children":[2,4,6,8,10,12,14,16,-1,18,20,22,24,26,28,30,32,34,36,-1,38,-1,40,42,-1,44,-1,46,48,50,52,54,-1,56,58,60,62,64,66,-1,68,-1,-1,70,-1,72,74,-1,-1,-1,-1,-1,-1,-1,-1,-1,-1,-1,-1,-1,-1,-1,-1,-1,-1,-1,-1,-1,-1,-1,-1,-1,-1,-1,-1],"split_conditions":[1.12374916E2,3.0942762E0,1.5608232E2,2.6035354E0,3.8732998E1,2E0,1.733638E2,1.603367E0,7.1163185E-2,2.451835E1,3.9739056E1,1.13548485E2,1.4339075E2,1.7237105E2,2E0,1.7575757E-1,2E0,1.8841413E1,3.1515152E1,7.218229E-2,4.1919025E1,2.0284882E-2,1.154532E2,1.1827323E2,4.901314E-3,1.7113805E2,-2.3409105E-3,2.2368855E2,1.7719427E2,2E0,6.3804716E-1,2.104377E0,-2.5355518E-1,1.4738384E1,2.0970034E1,2E0,3.5546127E1,4.0643433E1,4.285505E1,-1.0516443E-2,1.1640303E2,7.7671055E-3,5.8917742E-2,1.6103384E2,2.0890739E-2,2.2285994E2,2.2941397E2,5.3899005E-2,1.5867034E-2,2.6520291E-2,2.2242337E-1,-1.6675498E-2,1.680118E-2,-5.143159E-3,-4.2491585E-2,-6.7090113E-3,-7.795788E-2,8.7683685E-2,7.322187E-3,-6.487731E-2,1.6520499E-1,1.7991008E-2,-5.7596534E-2,-5.1396256E-3,-8.424496E-2,3.0192854E-2,-7.531929E-3,2.4637468E-2,2.7382558E-3,1.0445908E-2,7.413858E-3,1.1963763E-2,3.4956498E-5,1.2935603E-2,1.3967434E-2],"split_indices":[0,0,0,0,0,1,0,0,0,0,0,0,0,0,1,0,1,0,0,0,0,0,0,0,0,0,0,0,0,1,0,0,0,0,0,1,0,0,0,0,0,0,0,0,0,0,0,0,0,0,0,0,0,0,0,0,0,0,0,0,0,0,0,0,0,0,0,0,0,0,0,0,0,0,0],"split_type":[0,0,0,0,0,0,0,0,0,0,0,0,0,0,0,0,0,0,0,0,0,0,0,0,0,0,0,0,0,0,0,0,0,0,0,0,0,0,0,0,0,0,0,0,0,0,0,0,0,0,0,0,0,0,0,0,0,0,0,0,0,0,0,0,0,0,0,0,0,0,0,0,0,0,0],"sum_hessian":[1.0923E4,5.208E3,5.715E3,3.85E2,4.823E3,1.872E3,3.843E3,3.43E2,4.2E1,1.622E3,3.201E3,1.863E3,9E0,6.84E2,3.159E3,2.58E2,8.5E1,1.024E3,5.98E2,4.4E1,3.157E3,4.3E1,1.82E3,7E0,2E0,6.45E2,3.9E1,3.148E3,1.1E1,4.4E1,2.14E2,8.4E1,1E0,8.1E2,2.14E2,2.98E2,3E2,8.5E1,3.072E3,8.6E1,1.734E3,1E0,6E0,5.99E2,4.6E1,2.211E3,9.37E2,2E0,9E0,4.3E1,1E0,8.6E1,1.28E2,4.1E1,4.3E1,6.41E2,1.69E2,8.7E1,1.27E2,2.93E2,5E0,1.72E2,1.28E2,4E1,4.5E1,4.3E1,3.029E3,4.2E1,1.692E3,2.14E2,3.85E2,2.168E3,4.3E1,2.97E2,6.4E2],"tree_param":{"num_deleted":"0","num_feature":"2","num_nodes":"75","size_leaf_vector":"1"}},{"base_weights":[1.064673E-4,-2.071167E-2,2.3683809E-2,-3.004506E-2,-5.5724415E-3,1.348994E-2,2.8221797E-2,-3.4221995E-3,-4.070118E-2,-4.138553E-3,-8.543318E-2,1.3063278E-2,7.916965E-2,2.804406E-2,7.103389E-2,-1.9760404E-2,1.7333265E-1,-2.931513E-1,-3.2028746E-2,-6.0249404E-3,2.5596626E-2,-2.9698797E-2,6.449304E-2,2.647879E-2,1.1362567E-2,-3.941188E-2,1.1716027E-1,2.4306243E-2,3.0253839E-2,1.1070442E-1,8.23288E-3,-1.4829094E-3,-1.204284E-1,3.337065E-1,2.705824E-3,-4.975503E-2,-1.2409051E-1,4.734302E-2,-4.2936776E-2,-4.410751E-3,-4.278092E-2,3.397873E-2,3.3141158E-3,1.5760504E-2,1.6419763E-2,-1.4514086E-2,1.3205988E-2,8.820462E-2,5.830145E-2,2.6432289E-2,9.806206E-3,1.5277441E-2,2.9840576E-2,4.9364664E-2,7.4305534E-2,3.251828E-4,-8.625047E-2,1.0646181E-1,-8.6465836E-2,-2.1221127E-2,2.830646E-2,-4.2233434E-2,-8.2108695E-3,-1.8859099E-3,2.383207E-2,-2.5291158E-2,2.1077092E-4,6.728146E-3,1.3180254E-2,9.660307E-3,-6.901448E-3,1.1094263E-2,3.4996115E-3,2.2130013E-3,6.2216237E-2,7.503173E-3,1.821729E-2,-1.0863441E-2,7.998679E-3,6.314036E-3,9.115501E-3,-2.278676E-2,3.58647E-2],"categories":[],"categories_nodes":[],"categories_segments":[],"categories_sizes":[],"default_left":[0,0,0,0,0,0,0,0,0,0,0,0,0,0,0,0,0,0,0,0,0,0,0,0,0,0,0,0,0,0,0,0,0,0,0,0,0,0,0,0,0,0,0,0,0,0,0,0,0,0,0,0,0,0,0,0,0,0,0,0,0,0,0,0,0,0,0,0,0,0,0,0,0,0,0,0,0,0,0,0,0,0,0],"id":14,"left_children":[1,3,5,7,9,11,13,15,17,19,21,23,25,27,29,31,33,35,37,39,41,-1,-1,43,45,-1,47,49,51,53,-1,55,-1,57,-1,-1,-1,59,61,63,65,67,-1,69,-1,-1,71,-1,73,75,77,-1,79,-1,81,-1,-1,-1,-1,-1,-1,-1,-1,-1,-1,-1,-1,-1,-1,-1,-1,-1,-1,-1,-1,-1,-1,-1,-1,-1,-1,-1,-1],"loss_changes":[5.3623867E0,8.196571E-1,2.3660755E-1,1.0180473E0,2.5317466E-1,4.3242246E-2,2.4975061E-2,2.969254E0,5.601931E0,1.2221055E-1,1.8018356E-1,3.5542935E-2,9.537811E-2,2.8429985E-2,2.1171823E-2,6.563752E0,2.2895753E0,1.2351055E0,2.148325E0,1.2126206E-1,1.5478924E-2,0E0,0E0,5.243577E-2,1.5438223E-1,0E0,7.654384E-2,4.03409E-2,1.7402172E-2,1.4922544E-3,0E0,6.603282E-1,0E0,6.8148804E-1,0E0,0E0,0E0,1.6720233E0,3.3165412E0,3.0906743E-1,1.5533757E-1,8.444779E-3,0E0,8.2955346E-2,0E0,0E0,4.9199507E-2,0E0,5.9207536E-2,5.4450214E-2,1.3283049E-1,0E0,9.768605E-3,0E0,4.987052E-2,0E0,0E0,0E0,0E0,0E0,0E0,0E0,0E0,0E0,0E0,0E0,0E0,0E0,0E0,0E0,0E0,0E0,0E0,0E0,0E0,0E0,0E0,0E0,0E0,0E0,0E0,0E0,0E0],"parents":[2147483647,0,0,1,1,2,2,3,3,4,4,5,5,6,6,7,7,8,8,9,9,10,10,11,11,12,12,13,13,14,14,15,15,16,16,17,17,18,18,19,19,20,20,23,23,24,24,26,26,27,27,28,28,29,29,31,31,33,33,37,37,38,38,39,39,40,40,41,41,43,43,46,46,48,48,49,49,50,50,52,52,54,54],"right_children":[2,4,6,8,10,12,14,16,18,20,22,24,26,28,30,32,34,36,38,40,42,-1,-1,44,46,-1,48,50,52,54,-1,56,-1,58,-1,-1,-1,60,62,64,66,68,-1,70,-1,-1,72,-1,74,76,78,-1,80,-1,82,-1,-1,-1,-1,-1,-1,-1,-1,-1,-1,-1,-1,-1,-1,-1,-1,-1,-1,-1,-1,-1,-1,-1,-1,-1,-1,-1,-1],"split_conditions":[1.256266E2,7.4894615E1,1.633638E2,1.4738384E1,1.2487239E2,2E0,2E0,1.297862E1,1.6813805E1,1.21812454E2,2E0,1.293601E2,1.3013855E2,1.9491986E2,1.9671852E2,1.2234848E1,1.3823569E1,1.5964142E1,2.451835E1,1.1992155E2,1.2375707E2,-2.9698797E-2,6.449304E-2,1.2834125E2,1.3013855E2,-3.941188E-2,1.351229E2,1.90683E2,1.9574057E2,1.666399E2,8.23288E-3,2E0,-1.204284E-1,2E0,2.705824E-3,-4.975503E-2,-1.2409051E-1,1.8841413E1,3.1515152E1,1.1924411E2,1.2084714E2,1.22735016E2,3.3141158E-3,1.2755034E2,1.6419763E-2,-1.4514086E-2,1.320404E2,8.820462E-2,1.5902576E2,1.8953148E2,1.91916E2,1.5277441E-2,1.9865573E2,4.9364664E-2,1.7009326E2,3.251828E-4,-8.625047E-2,1.0646181E-1,-8.6465836E-2,-2.1221127E-2,2.830646E-2,-4.2233434E-2,-8.2108695E-3,-1.8859099E-3,2.383207E-2,-2.5291158E-2,2.1077092E-4,6.728146E-3,1.3180254E-2,9.660307E-3,-6.901448E-3,1.1094263E-2,3.4996115E-3,2.2130013E-3,6.2216237E-2,7.503173E-3,1.821729E-2,-1.0863441E-2,7.998679E-3,6.314036E-3,9.115501E-3,-2.278676E-2,3.58647E-2],"split_indices":[0,0,0,0,0,1,1,0,0,0,1,0,0,0,0,0,0,0,0,0,0,0,0,0,0,0,0,0,0,0,0,1,0,1,0,0,0,0,0,0,0,0,0,0,0,0,0,0,0,0,0,0,0,0,0,0,0,0,0,0,0,0,0,0,0,0,0,0,0,0,0,0,0,0,0,0,0,0,0,0,0,0,0],"split_type":[0,0,0,0,0,0,0,0,0,0,0,0,0,0,0,0,0,0,0,0,0,0,0,0,0,0,0,0,0,0,0,0,0,0,0,0,0,0,0,0,0,0,0,0,0,0,0,0,0,0,0,0,0,0,0,0,0,0,0,0,0,0,0,0,0,0,0,0,0,0,0,0,0,0,0,0,0,0,0,0,0,0,0],"sum_hessian":[1.0923E4,5.801E3,5.122E3,3.588E3,2.213E3,1.579E3,3.543E3,1.026E3,2.562E3,2.175E3,3.8E1,1.57E3,9E0,3.53E3,1.3E1,9.4E2,8.6E1,8.4E1,2.478E3,2.046E3,1.29E2,3.7E1,1E0,1.75E2,1.395E3,1E0,8E0,1.316E3,2.214E3,6E0,7E0,8.98E2,4.2E1,4.3E1,4.3E1,4.2E1,4.2E1,2.99E2,2.179E3,1.961E3,8.5E1,8.1E1,4.8E1,1.28E2,4.7E1,4.1E1,1.354E3,1E0,7E0,1.147E3,1.69E2,4.1E1,2.173E3,1E0,5E0,8.91E2,7E0,4.2E1,1E0,8.5E1,2.14E2,2.98E2,1.881E3,1.919E3,4.2E1,4.3E1,4.2E1,3.9E1,4.2E1,9E1,3.8E1,8.1E1,1.273E3,6E0,1E0,1.103E3,4.4E1,4.5E1,1.24E2,1.29E2,2.044E3,1E0,4E0],"tree_param":{"num_deleted":"0","num_feature":"2","num_nodes":"83","size_leaf_vector":"1"}},{"base_weights":[6.632584E-5,-1.9519886E-2,1.2842379E-2,4.4473488E-2,-2.2204747E-2,1.0634223E-3,1.8432155E-2,5.639404E-3,1.590824E-1,-2.1192444E-2,-3.4787796E-2,3.391823E-4,1.716245E-1,2.149406E-2,1.7840192E-2,2.0317854E-2,-6.2741375E-1,3.3921964E-2,3.2062155E-1,-2.2307983E-2,2.2011809E-2,2.3855258E-2,-3.413295E-3,2.1037102E-1,-2.0752145E-2,-1.7526032E-2,1.8494897E-2,5.5674225E-2,-1.55068915E-2,2.0199738E-1,-4.8433357E-1,-3.1772587E-2,-1.5707502E-2,-4.08778E-3,5.5728003E-2,-2.729431E-2,1.1154294E-3,7.03238E-2,9.216404E-2,1.8279219E-2,6.4803556E-2,1.8649554E-2,1.4375386E-2,-7.770358E-3,-7.732915E-2,9.315904E-2,-6.589169E-3,9.773884E-3,-1.2663745E-2,8.759031E-3,-6.0043536E-4,-3.350015E-2,7.497397E-2,4.1465163E-3,6.2279557E-3,2.8345535E-2,7.7020456E-3],"categories":[],"categories_nodes":[],"categories_segments":[],"categories_sizes":[],"default_left":[0,0,0,0,0,0,0,0,0,0,0,0,0,0,0,0,0,0,0,0,0,0,0,0,0,0,0,0,0,0,0,0,0,0,0,0,0,0,0,0,0,0,0,0,0,0,0,0,0,0,0,0,0,0,0,0,0],"id":15,"left_children":[1,3,5,7,9,11,13,15,17,19,-1,21,23,-1,25,27,29,-1,-1,31,-1,33,35,37,-1,-1,39,41,-1,-1,-1,43,45,47,-1,-1,49,-1,51,53,55,-1,-1,-1,-1,-1,-1,-1,-1,-1,-1,-1,-1,-1,-1,-1,-1],"loss_changes":[2.7338119E0,7.420186E-1,4.3532598E-1,7.7353024E-1,3.9046192E-1,2.6293114E-1,1.3997316E-1,1.2300311E0,1.7206653E0,4.3383396E-1,0E0,1.8724598E-1,9.852302E-2,0E0,2.2256136E-1,3.3130193E-1,4.938655E0,0E0,0E0,2.5250793E-1,0E0,1.3217996E0,7.2582483E-1,1.1307001E-3,0E0,0E0,4.275143E-2,1.4012158E-3,0E0,0E0,0E0,2.199932E0,4.880898E0,3.5085863E-1,0E0,0E0,1.5244152E-1,0E0,1.243697E-1,4.814446E-2,2.0803064E-2,0E0,0E0,0E0,0E0,0E0,0E0,0E0,0E0,0E0,0E0,0E0,0E0,0E0,0E0,0E0,0E0],"parents":[2147483647,0,0,1,1,2,2,3,3,4,4,5,5,6,6,7,7,8,8,9,9,11,11,12,12,14,14,15,15,16,16,19,19,21,21,22,22,23,23,26,26,27,27,31,31,32,32,33,33,36,36,38,38,39,39,40,40],"right_children":[2,4,6,8,10,12,14,16,18,20,-1,22,24,-1,26,28,30,-1,-1,32,-1,34,36,38,-1,-1,40,42,-1,-1,-1,44,46,48,-1,-1,50,-1,52,54,56,-1,-1,-1,-1,-1,-1,-1,-1,-1,-1,-1,-1,-1,-1,-1,-1],"split_conditions":[9.255959E1,9.382155E-1,1.4027238E2,6.3804716E-1,9.1544106E1,2E0,1.4134125E2,2E0,2E0,9.0115654E1,-3.4787796E-2,9.856212E1,1.351229E2,2.149406E-2,1.4215858E2,3.7542087E-1,1.7575757E-1,3.3921964E-2,3.2062155E-1,3.4497475E1,2.2011809E-2,9.766263E1,1.00374916E2,1.256266E2,-2.0752145E-2,-1.7526032E-2,2E0,1.7575757E-1,-1.55068915E-2,2.0199738E-1,-4.8433357E-1,3.3656227E1,3.5546127E1,9.524848E1,5.5728003E-2,-2.729431E-2,1.0419394E2,7.03238E-2,1.3013855E2,1.8092677E2,1.7719427E2,1.8649554E-2,1.4375386E-2,-7.770358E-3,-7.732915E-2,9.315904E-2,-6.589169E-3,9.773884E-3,-1.2663745E-2,8.759031E-3,-6.0043536E-4,-3.350015E-2,7.497397E-2,4.1465163E-3,6.2279557E-3,2.8345535E-2,7.7020456E-3],"split_indices":[0,0,0,0,0,1,0,1,1,0,0,0,0,0,0,0,0,0,0,0,0,0,0,0,0,0,1,0,0,0,0,0,0,0,0,0,0,0,0,0,0,0,0,0,0,0,0,0,0,0,0,0,0,0,0,0,0],"split_type":[0,0,0,0,0,0,0,0,0,0,0,0,0,0,0,0,0,0,0,0,0,0,0,0,0,0,0,0,0,0,0,0,0,0,0,0,0,0,0,0,0,0,0,0,0,0,0,0,0,0,0,0,0,0,0,0,0],"sum_hessian":[1.0923E4,4.312E3,6.611E3,1.73E2,4.139E3,2.128E3,4.483E3,1.3E2,4.3E1,4.096E3,4.3E1,2.12E3,8E0,4.8E1,4.435E3,1.28E2,2E0,4.2E1,1E0,4.049E3,4.7E1,2.91E2,1.829E3,7E0,1E0,3.7E1,4.398E3,8.6E1,4.2E1,1E0,1E0,1.662E3,2.387E3,2.49E2,4.2E1,8.9E1,1.74E3,5E0,2E0,4.379E3,1.9E1,4.3E1,4.3E1,1.621E3,4.1E1,4.4E1,2.343E3,1.27E2,1.22E2,1.73E2,1.567E3,1E0,1E0,1.568E3,2.811E3,1E1,9E0],"tree_param":{"num_deleted":"0","num_feature":"2","num_nodes":"57","size_leaf_vector":"1"}},{"base_weights":[6.976014E-5,-1.3490709E-2,9.207017E-3,5.1911853E-2,-1.4822635E-2,2.4571352E-2,8.712276E-3,3.9351627E-2,1.7169772E-1,-9.808927E-2,-1.3960743E-2,-2.1747293E-2,9.265642E-3,1.3181975E-2,1.0160696E-2,-1.0963054E-2,-4.1168356E-1,1.1941526E-1,-1.5346443E-2,1.7541928E-3,1.3571362E-2,2.3981974E-2,2.7252832E-1,-2.0948047E-2,-5.135146E-3,4.5456316E-2,-6.614027E-4,3.5464E-2,1.3131765E-2,-5.3966613E-3,-6.43331E-2,1.6038971E-2,-3.8930655E-3,-2.0733058E-4,3.9398417E-2,-1.9197043E-2,6.018011E-4,3.1977654E-3,1.8380255E-2,-5.4759746E-3,4.054836E-3],"categories":[],"categories_nodes":[],"categories_segments":[],"categories_sizes":[],"default_left":[0,0,0,0,0,0,0,0,0,0,0,0,0,0,0,0,0,0,0,0,0,0,0,0,0,0,0,0,0,0,0,0,0,0,0,0,0,0,0,0,0],"id":16,"left_children":[1,3,5,7,9,-1,11,13,-1,15,17,-1,19,-1,-1,-1,-1,21,23,25,27,-1,-1,29,31,33,35,37,39,-1,-1,-1,-1,-1,-1,-1,-1,-1,-1,-1,-1],"loss_changes":[1.3536675E0,3.8388544E-1,2.3403895E-1,5.5269134E-1,3.0801743E-1,0E0,2.9203102E-1,7.003695E-4,0E0,3.4003735E0,7.906408E-1,0E0,2.082923E-1,0E0,0E0,0E0,0E0,1.2978283E0,2.4156088E-1,2.4790055E-1,3.8934708E-2,0E0,0E0,1.5581622E0,6.8904454E-1,4.8751011E-1,3.76152E-1,5.0550967E-2,4.867959E-2,0E0,0E0,0E0,0E0,0E0,0E0,0E0,0E0,0E0,0E0,0E0,0E0],"parents":[2147483647,0,0,1,1,2,2,3,3,4,4,6,6,7,7,9,9,10,10,12,12,17,17,18,18,19,19,20,20,23,23,24,24,25,25,26,26,27,27,28,28],"right_children":[2,4,6,8,10,-1,12,14,-1,16,18,-1,20,-1,-1,-1,-1,22,24,26,28,-1,-1,30,32,34,36,38,40,-1,-1,-1,-1,-1,-1,-1,-1,-1,-1,-1,-1],"split_conditions":[9.4358246E1,3.7542087E-1,9.524848E1,2E0,6.3804716E-1,2.4571352E-2,9.6047134E1,1.7575757E-1,1.7169772E-1,2E0,9.382155E-1,-2.1747293E-2,1.492761E2,1.3181975E-2,1.0160696E-2,-1.0963054E-2,-4.1168356E-1,2E0,5.9489563E1,9.856212E1,1.5155219E2,2.3981974E-2,2.7252832E-1,5.8569023E1,6.3565826E1,9.766263E1,1.00374916E2,1.5046263E2,1.525485E2,-5.3966613E-3,-6.43331E-2,1.6038971E-2,-3.8930655E-3,-2.0733058E-4,3.9398417E-2,-1.9197043E-2,6.018011E-4,3.1977654E-3,1.8380255E-2,-5.4759746E-3,4.054836E-3],"split_indices":[0,0,0,1,0,0,0,0,0,1,0,0,0,0,0,0,0,1,0,0,0,0,0,0,0,0,0,0,0,0,0,0,0,0,0,0,0,0,0,0,0],"split_type":[0,0,0,0,0,0,0,0,0,0,0,0,0,0,0,0,0,0,0,0,0,0,0,0,0,0,0,0,0,0,0,0,0,0,0,0,0,0,0,0,0],"sum_hessian":[1.0923E4,4.397E3,6.526E3,8.7E1,4.31E3,4.3E1,6.483E3,8.6E1,1E0,4.3E1,4.267E3,4.3E1,6.44E3,4.3E1,4.3E1,4.2E1,1E0,4.3E1,4.224E3,2.347E3,4.093E3,4.2E1,1E0,2.727E3,1.497E3,1.22E2,2.225E3,7.9E1,4.014E3,2.687E3,4E1,1.76E2,1.321E3,8E1,4.2E1,8.9E1,2.136E3,4.1E1,3.8E1,4.8E1,3.966E3],"tree_param":{"num_deleted":"0","num_feature":"2","num_nodes":"41","size_leaf_vector":"1"}},{"base_weights":[5.3790005E-5,-7.3677306E-3,8.58663E-3,1.114629E-2,-9.320712E-3,1.2954907E-2,8.241228E-3,-2.1014123E-3,8.2890764E-2,-7.780024E-2,-7.3169204E-3,-5.949393E-3,8.999822E-3,1.1763716E-2,-4.221115E-2,9.915669E-2,-1.21682234E-1,5.9252765E-2,-9.087707E-3,8.262224E-3,-2.0311559E-2,3.8622778E-2,8.455058E-3,-5.844982E-3,8.125369E-2,4.403825E-2,1.4763976E-2,-1.21724516E-1,-7.2148875E-3,-4.2138575E-3,1.8825956E-2,3.408598E-2,6.363759E-2,-2.0313E-2,9.09136E-3,3.6626607E-3,-1.804455E-2,5.4073773E-2,-4.5433505E-3,-1.2727876E-2,-6.057021E-2,6.013151E-2,-2.7166356E-3,4.257372E-3,-6.770987E-3,3.9261305E-3,1.5235605E-2,7.530182E-3,2.5888553E-3],"categories":[],"categories_nodes":[],"categories_segments":[],"categories_sizes":[],"default_left":[0,0,0,0,0,0,0,0,0,0,0,0,0,0,0,0,0,0,0,0,0,0,0,0,0,0,0,0,0,0,0,0,0,0,0,0,0,0,0,0,0,0,0,0,0,0,0,0,0],"id":17,"left_children":[1,3,5,7,9,-1,11,13,15,-1,17,19,21,23,-1,25,-1,-1,27,29,-1,31,33,35,37,-1,-1,39,41,43,-1,45,-1,-1,47,-1,-1,-1,-1,-1,-1,-1,-1,-1,-1,-1,-1,-1,-1],"loss_changes":[6.918436E-1,2.1137232E-1,6.0372263E-2,5.3052497E-1,2.646254E0,0E0,5.4233313E-2,9.087165E-1,7.3150986E-1,0E0,1.9041737E0,2.2523774E-1,7.677841E-2,5.2663493E-1,0E0,1.9500601E-1,0E0,0E0,1.0962645E0,1.4234968E-1,0E0,6.046404E-2,2.2805673E-1,3.3798766E-1,8.329421E-1,0E0,0E0,5.3184974E-1,1.9575276E0,5.8091924E-2,0E0,2.9142156E-2,0E0,0E0,3.4201205E-2,0E0,0E0,0E0,0E0,0E0,0E0,0E0,0E0,0E0,0E0,0E0,0E0,0E0,0E0],"parents":[2147483647,0,0,1,1,2,2,3,3,4,4,6,6,7,7,8,8,10,10,11,11,12,12,13,13,15,15,18,18,19,19,21,21,22,22,23,23,24,24,27,27,28,28,29,29,31,31,34,34],"right_children":[2,4,6,8,10,-1,12,14,16,-1,18,20,22,24,-1,26,-1,-1,28,30,-1,32,34,36,38,-1,-1,40,42,44,-1,46,-1,-1,48,-1,-1,-1,-1,-1,-1,-1,-1,-1,-1,-1,-1,-1,-1],"split_conditions":[1.2646633E2,5.6531987E0,1.2755034E2,4.363805E0,6.4419193E0,1.2954907E-2,1.3305319E2,3.7627945E0,2E0,-7.780024E-2,7.3531985E0,1.320404E2,1.351229E2,2.6035354E0,-4.221115E-2,5.002357E0,-1.21682234E-1,5.9252765E-2,8.814983E0,1.3121246E2,-2.0311559E-2,2E0,1.3599277E2,1.603367E0,3.0942762E0,4.403825E-2,1.4763976E-2,8.214983E0,9.565151E0,1.293601E2,1.8825956E-2,1.3408905E2,6.363759E-2,-2.0313E-2,1.392591E2,3.6626607E-3,-1.804455E-2,5.4073773E-2,-4.5433505E-3,-1.2727876E-2,-6.057021E-2,6.013151E-2,-2.7166356E-3,4.257372E-3,-6.770987E-3,3.9261305E-3,1.5235605E-2,7.530182E-3,2.5888553E-3],"split_indices":[0,0,0,0,0,0,0,0,1,0,0,0,0,0,0,0,0,0,0,0,0,1,0,0,0,0,0,0,0,0,0,0,0,0,0,0,0,0,0,0,0,0,0,0,0,0,0,0,0],"split_type":[0,0,0,0,0,0,0,0,0,0,0,0,0,0,0,0,0,0,0,0,0,0,0,0,0,0,0,0,0,0,0,0,0,0,0,0,0,0,0,0,0,0,0,0,0,0,0,0,0],"sum_hessian":[1.0923E4,5.842E3,5.081E3,5.57E2,5.285E3,4.9E1,5.032E3,4.71E2,8.6E1,4.1E1,5.244E3,2.55E2,4.777E3,4.29E2,4.2E1,8.4E1,2E0,4.4E1,5.2E3,2.08E2,4.7E1,8.5E1,4.692E3,3.43E2,8.6E1,4.2E1,4.2E1,8.4E1,5.116E3,1.7E2,3.8E1,8.4E1,1E0,3.8E1,4.654E3,2.58E2,8.5E1,4.2E1,4.4E1,4.3E1,4.1E1,4.4E1,5.072E3,8.5E1,8.5E1,3.8E1,4.6E1,1.29E2,4.525E3],"tree_param":{"num_deleted":"0","num_feature":"2","num_nodes":"49","size_leaf_vector":"1"}},{"base_weights":[3.5398665E-5,-1.1861102E-2,4.0899576E-3,-6.175574E-3,-9.740409E-2,5.2992765E-2,3.1527085E-3,-1.1710108E-2,1.5414242E-1,-8.053358E-2,-2.3701498E-1,-7.517752E-2,3.952799E-3,2.0681813E-3,-2.9201709E-2,7.0901096E-2,1.0969347E0,-1.6744663E-1,4.4847874E-4,-3.8818293E-4,-4.4708863E-2,8.4538355E-2,3.4877171E-3,-1.2300693E-2,8.19896E-2,-8.285556E-2,-9.40897E-3,-1.26047265E-2,5.7058595E-2,-5.8620945E-2,-3.9483733E-2,-2.0364763E-3,2.5043897E-3,3.612783E-2,-2.2956148E-1,-3.331232E-2,4.1222656E-3,1.3145101E-3,-3.3902887E-2,5.799296E-2,1.4449161E-3,-2.8104564E-2,1.3843296E-1,1.7055964E-2,-8.19173E-3,2.7354943E-2,9.403288E-4],"categories":[],"categories_nodes":[],"categories_segments":[],"categories_sizes":[],"default_left":[0,0,0,0,0,0,0,0,0,0,0,0,0,0,0,0,0,0,0,0,0,0,0,0,0,0,0,0,0,0,0,0,0,0,0,0,0,0,0,0,0,0,0,0,0,0,0],"id":18,"left_children":[1,3,5,7,9,-1,11,13,15,17,-1,19,21,23,25,27,-1,29,31,-1,-1,33,35,37,39,41,43,-1,-1,-1,-1,-1,-1,-1,-1,-1,45,-1,-1,-1,-1,-1,-1,-1,-1,-1,-1],"loss_changes":[5.2696824E-1,1.3500121E0,1.3171763E0,2.3131835E0,1.9579297E0,0E0,5.082478E-1,6.071504E-1,2.5104443E1,1.1966026E0,0E0,4.4723618E-1,3.0043572E-1,1.6202255E0,1.1779923E0,1.1664392E0,0E0,5.64301E-2,5.1444843E-3,0E0,0E0,1.4949373E0,5.8032435E-1,2.009854E0,1.8461213E0,1.8051612E0,9.6448743E-1,0E0,0E0,0E0,0E0,0E0,0E0,0E0,0E0,0E0,6.822253E-1,0E0,0E0,0E0,0E0,0E0,0E0,0E0,0E0,0E0,0E0],"parents":[2147483647,0,0,1,1,2,2,3,3,4,4,6,6,7,7,8,8,9,9,11,11,12,12,13,13,14,14,15,15,17,17,18,18,21,21,22,22,23,23,24,24,25,25,26,26,36,36],"right_children":[2,4,6,8,10,-1,12,14,16,18,-1,20,22,24,26,28,-1,30,32,-1,-1,34,36,38,40,42,44,-1,-1,-1,-1,-1,-1,-1,-1,-1,46,-1,-1,-1,-1,-1,-1,-1,-1,-1,-1],"split_conditions":[5.688485E1,5.364108E1,5.783485E1,5.184411E1,2E0,5.2992765E-2,5.9489563E1,2.451835E1,2E0,5.5304714E1,-2.3701498E-1,5.8569023E1,6.0509598E1,1.8841413E1,3.1515152E1,5.2749157E1,1.0969347E0,5.4497475E1,5.6135017E1,-3.8818293E-4,-4.4708863E-2,2E0,6.1394108E1,1.4738384E1,2.0970034E1,2E0,3.5546127E1,-1.26047265E-2,5.7058595E-2,-5.8620945E-2,-3.9483733E-2,-2.0364763E-3,2.5043897E-3,3.612783E-2,-2.2956148E-1,-3.331232E-2,6.3565826E1,1.3145101E-3,-3.3902887E-2,5.799296E-2,1.4449161E-3,-2.8104564E-2,1.3843296E-1,1.7055964E-2,-8.19173E-3,2.7354943E-2,9.403288E-4],"split_indices":[0,0,0,0,1,0,0,0,1,0,0,0,0,0,0,0,0,0,0,0,0,1,0,0,0,1,0,0,0,0,0,0,0,0,0,0,0,0,0,0,0,0,0,0,0,0,0],"split_type":[0,0,0,0,0,0,0,0,0,0,0,0,0,0,0,0,0,0,0,0,0,0,0,0,0,0,0,0,0,0,0,0,0,0,0,0,0,0,0,0,0,0,0,0,0,0,0],"sum_hessian":[1.0923E4,2.776E3,8.147E3,2.604E3,1.72E2,4.3E1,8.104E3,2.518E3,8.6E1,1.69E2,3E0,8.1E1,8.023E3,1.409E3,1.109E3,8.5E1,1E0,8.1E1,8.8E1,4.1E1,4E1,4.5E1,7.978E3,1.195E3,2.14E2,2.98E2,8.11E2,4.4E1,4.1E1,4.3E1,3.8E1,4.6E1,4.2E1,4.4E1,1E0,4.3E1,7.935E3,1.026E3,1.69E2,8.7E1,1.27E2,2.93E2,5E0,1.72E2,6.39E2,8.8E1,7.847E3],"tree_param":{"num_deleted":"0","num_feature":"2","num_nodes":"47","size_leaf_vector":"1"}},{"base_weights":[9.457681E-5,-7.824312E-3,3.505411E-3,-5.260686E-3,-4.482174E-2,6.584894E-2,2.2533222E-3,-7.463299E-3,1.4003462E-1,-9.129357E-2,-1.385331E-2,-4.9175225E-2,3.2214357E-3,1.6666721E-3,-1.634487E-2,3.963445E-2,7.44637E-2,-2.3301449E-2,-3.0502817E-2,-9.022116E-3,-5.1030554E-3,2.8524743E-3,8.469973E-2,3.925726E-3,-3.036625E-1,-6.767035E-2,-1.0316152E-2,3.8265416E-3,-6.3781356E-3,-2.4587857E-2,3.317158E-3,9.530144E-2,6.0211763E-2,-1.9588794E-3,1.3584262E-2,1.451965E-1,-1.2924792E-1,2.3027323E-2,-3.8657738E-3,1.5204854E-2,7.53449E-4,-5.0923564E-2,2.1931615E-2],"categories":[],"categories_nodes":[],"categories_segments":[],"categories_sizes":[],"default_left":[0,0,0,0,0,0,0,0,0,0,0,0,0,0,0,0,0,0,0,0,0,0,0,0,0,0,0,0,0,0,0,0,0,0,0,0,0,0,0,0,0,0,0],"id":19,"left_children":[1,3,5,7,9,-1,11,13,15,17,19,-1,21,23,25,-1,-1,-1,-1,-1,27,29,31,33,35,-1,37,-1,-1,-1,39,-1,41,-1,-1,-1,-1,-1,-1,-1,-1,-1,-1],"loss_changes":[2.9508483E-1,3.117178E-1,2.0645852E0,9.857753E-1,3.0527627E-1,0E0,1.2220304E0,2.458875E-1,6.6176653E-3,4.124284E-3,1.815585E-2,0E0,2.2672912E-1,1.0330656E0,1.936362E0,0E0,0E0,0E0,0E0,0E0,2.4797242E-2,2.9652238E-1,1.7484257E-1,6.4281446E-1,1.3102831E0,0E0,3.3550882E-1,0E0,0E0,0E0,2.852003E-1,0E0,1.0728856E-1,0E0,0E0,0E0,0E0,0E0,0E0,0E0,0E0,0E0,0E0],"parents":[2147483647,0,0,1,1,2,2,3,3,4,4,6,6,7,7,8,8,9,9,10,10,12,12,13,13,14,14,20,20,21,21,22,22,23,23,24,24,26,26,30,30,32,32],"right_children":[2,4,6,8,10,-1,12,14,16,18,20,-1,22,24,26,-1,-1,-1,-1,-1,28,30,32,34,36,-1,38,-1,-1,-1,40,-1,42,-1,-1,-1,-1,-1,-1,-1,-1,-1,-1],"split_conditions":[6.7925255E1,6.3565826E1,6.908687E1,6.2249325E1,6.543805E1,6.584894E-2,7.0001854E1,2.6707407E1,2E0,6.437374E1,6.627458E1,-4.9175225E-2,2E0,2E0,2.7509596E1,3.963445E-2,7.44637E-2,-2.3301449E-2,-3.0502817E-2,-9.022116E-3,6.714124E1,7.0908585E1,7.0908585E1,1.8841413E1,1.7575757E-1,-6.767035E-2,2.8451853E1,3.8265416E-3,-6.3781356E-3,-2.4587857E-2,7.392542E1,9.530144E-2,7.5649155E1,-1.9588794E-3,1.3584262E-2,1.451965E-1,-1.2924792E-1,2.3027323E-2,-3.8657738E-3,1.5204854E-2,7.53449E-4,-5.0923564E-2,2.1931615E-2],"split_indices":[0,0,0,0,0,0,0,0,1,0,0,0,1,1,0,0,0,0,0,0,0,0,0,0,0,0,0,0,0,0,0,0,0,0,0,0,0,0,0,0,0,0,0],"split_type":[0,0,0,0,0,0,0,0,0,0,0,0,0,0,0,0,0,0,0,0,0,0,0,0,0,0,0,0,0,0,0,0,0,0,0,0,0,0,0,0,0,0,0],"sum_hessian":[1.0923E4,3.288E3,7.635E3,3.076E3,2.12E2,4.3E1,7.592E3,3.031E3,4.5E1,8.4E1,1.28E2,4.3E1,7.549E3,1.495E3,1.536E3,4.4E1,1E0,4E1,4.4E1,4.4E1,8.4E1,7.516E3,3.3E1,1.485E3,1E1,4.2E1,1.494E3,4E1,4.4E1,4E1,7.476E3,2E0,3.1E1,1.186E3,2.99E2,1E0,9E0,4.2E1,1.452E3,1.24E2,7.352E3,1E0,3E1],"tree_param":{"num_deleted":"0","num_feature":"2","num_nodes":"43","size_leaf_vector":"1"}},{"base_weights":[7.557138E-5,-9.39478E-3,2.208171E-3,-4.958706E-3,-6.2187683E-2,6.126694E-2,1.1833899E-3,-8.495793E-3,4.5033988E-2,-7.73355E-2,1.9516468E-3,-4.308929E-3,-5.6169633E-2,6.4343125E-2,-1.3245524E-2,6.599995E-3,-1.6419244E-1,1.0531216E-1,1.4313706E-3,-8.190318E-3,1.5033886E-1,-4.6011463E-2,-9.766989E-2,3.8363297E-2,-1.2975058E-1,-3.802113E-2,2.0496661E-3,-3.0785534E-4,-2.9270632E-2,4.2361133E-2,8.1472136E-2,9.473842E-3,2.0488694E-4],"categories":[],"categories_nodes":[],"categories_segments":[],"categories_sizes":[],"default_left":[0,0,0,0,0,0,0,0,0,0,0,0,0,0,0,0,0,0,0,0,0,0,0,0,0,0,0,0,0,0,0,0,0],"id":20,"left_children":[1,3,5,7,-1,-1,9,11,13,15,17,19,-1,-1,-1,-1,21,23,25,27,29,-1,-1,-1,-1,-1,31,-1,-1,-1,-1,-1,-1],"loss_changes":[2.2064693E-1,1.7617708E0,1.8457654E0,3.4785062E-1,0E0,0E0,5.35394E-1,1.3731542E0,1.9740174E0,7.4561805E-1,4.724328E-1,1.0786769E0,0E0,0E0,0E0,0E0,3.0392885E-2,5.892929E-1,6.9326586E-1,1.1217391E0,1.0382354E-2,0E0,0E0,0E0,0E0,0E0,3.5126033E-1,0E0,0E0,0E0,0E0,0E0,0E0],"parents":[2147483647,0,0,1,1,2,2,3,3,6,6,7,7,8,8,9,9,10,10,11,11,16,16,17,17,18,18,19,19,20,20,26,26],"right_children":[2,4,6,8,-1,-1,10,12,14,16,18,20,-1,-1,-1,-1,22,24,26,28,30,-1,-1,-1,-1,-1,32,-1,-1,-1,-1,-1,-1],"split_conditions":[3.8732998E1,3.7904713E1,3.9739056E1,3.4497475E1,-6.2187683E-2,6.126694E-2,4.1919025E1,3.3656227E1,3.5546127E1,4.0643433E1,4.285505E1,3.2864983E1,-5.6169633E-2,6.4343125E-2,-1.3245524E-2,6.599995E-3,2E0,2E0,4.389276E1,2.930926E1,2E0,-4.6011463E-2,-9.766989E-2,3.8363297E-2,-1.2975058E-1,-3.802113E-2,5.364108E1,-3.0785534E-4,-2.9270632E-2,4.2361133E-2,8.1472136E-2,9.473842E-3,2.0488694E-4],"split_indices":[0,0,0,0,0,0,0,0,0,0,0,0,0,0,0,0,1,1,0,0,1,0,0,0,0,0,0,0,0,0,0,0,0],"split_type":[0,0,0,0,0,0,0,0,0,0,0,0,0,0,0,0,0,0,0,0,0,0,0,0,0,0,0,0,0,0,0,0,0],"sum_hessian":[1.0923E4,2.007E3,8.916E3,1.964E3,4.3E1,4.4E1,8.872E3,1.835E3,1.29E2,8.5E1,8.787E3,1.794E3,4.1E1,4.4E1,8.5E1,4E1,4.5E1,4.3E1,8.744E3,1.751E3,4.3E1,4.4E1,1E0,4.2E1,1E0,4.1E1,8.703E3,1.622E3,1.29E2,4.2E1,1E0,3.84E2,8.319E3],"tree_param":{"num_deleted":"0","num_feature":"2","num_nodes":"33","size_leaf_vector":"1"}},{"base_weights":[3.7363403E-5,-2.9539324E-3,4.862348E-3,3.420316E-2,-3.4446744E-3,3.5692435E-3,7.649984E-3,2.5135523E-2,1.2346316E-1,-7.802354E-2,-2.9480136E-3,1.0596971E-2,2.756221E-3,1.0674695E-2,6.5898616E-3,8.522721E-3,6.3872146E-3,-8.544705E-3,-3.312442E-1,9.057366E-2,-3.5737944E-3,2.5471384E-3,1.9073399E-2,-1.4152204E-2,3.606774E-3,3.2249016E-3,-2.2338869E-3,-6.9782496E-3,7.980118E-3,1.6160483E-2,2.503358E-1,-2.14595E-2,-3.1361522E-3,1.0522671E-2,-1.1957874E-2,4.9185078E-3,-1.4997083E-3,6.349589E-3,8.727076E-3,7.1534035E-3,-1.1596332E-3,5.5079797E-4,1.1695716E-2,-5.185622E-3,-1.7259511E-3,1.0049754E-3,5.411389E-3,-1.4814228E-2,9.5392705E-4,2.931353E-3,-4.11064E-3,2.6291776E-3,-2.2338869E-3],"categories":[],"categories_nodes":[],"categories_segments":[],"categories_sizes":[],"default_left":[0,0,0,0,0,0,0,0,0,0,0,0,0,0,0,0,0,0,0,0,0,0,0,0,0,0,0,0,0,0,0,0,0,0,0,0,0,0,0,0,0,0,0,0,0,0,0,0,0,0,0,0,0],"id":21,"left_children":[1,3,5,7,9,11,13,15,-1,17,19,21,23,25,27,-1,-1,-1,-1,29,31,33,-1,-1,35,-1,-1,-1,37,-1,-1,-1,39,41,43,45,47,49,51,-1,-1,-1,-1,-1,-1,-1,-1,-1,-1,-1,-1,-1,-1],"loss_changes":[1.5767999E-1,1.2309162E-1,1.5043959E-2,2.9075545E-1,2.463479E-1,1.6300552E-2,4.175149E-3,4.901476E-4,0E0,2.2053084E0,3.8740185E-1,1.2607862E-1,1.090164E-1,5.447082E-4,4.0980227E-2,0E0,0E0,0E0,0E0,1.1564415E0,1.9520533E-1,2.9972613E-2,0E0,0E0,1.6893905E-2,0E0,0E0,0E0,1.08945E-3,0E0,0E0,0E0,1.285823E-1,4.1219056E-2,2.9416839E-3,4.1221127E-2,1.15770794E-1,2.0647887E-2,4.4786558E-4,0E0,0E0,0E0,0E0,0E0,0E0,0E0,0E0,0E0,0E0,0E0,0E0,0E0,0E0],"parents":[2147483647,0,0,1,1,2,2,3,3,4,4,5,5,6,6,7,7,9,9,10,10,11,11,12,12,13,13,14,14,19,19,20,20,21,21,24,24,28,28,32,32,33,33,34,34,35,35,36,36,37,37,38,38],"right_children":[2,4,6,8,10,12,14,16,-1,18,20,22,24,26,28,-1,-1,-1,-1,30,32,34,-1,-1,36,-1,-1,-1,38,-1,-1,-1,40,42,44,46,48,50,52,-1,-1,-1,-1,-1,-1,-1,-1,-1,-1,-1,-1,-1,-1],"split_conditions":[1.474724E2,3.7542087E-1,2.1549579E2,2E0,6.3804716E-1,1.5492912E2,2.2285994E2,1.7575757E-1,1.2346316E-1,2E0,9.382155E-1,1.5396498E2,1.5608232E2,2E0,2.2368855E2,8.522721E-3,6.3872146E-3,-8.544705E-3,-3.312442E-1,2E0,1.2159933E0,1.5155219E2,1.9073399E-2,-1.4152204E-2,2.036399E2,3.2249016E-3,-2.2338869E-3,-6.9782496E-3,2.2941397E2,1.6160483E-2,2.503358E-1,-2.14595E-2,3.0942762E0,1.5046263E2,1.525485E2,1.9865573E2,2.0474883E2,2.2855927E2,2E0,7.1534035E-3,-1.1596332E-3,5.5079797E-4,1.1695716E-2,-5.185622E-3,-1.7259511E-3,1.0049754E-3,5.411389E-3,-1.4814228E-2,9.5392705E-4,2.931353E-3,-4.11064E-3,2.6291776E-3,-2.2338869E-3],"split_indices":[0,0,0,1,0,0,0,0,0,1,0,0,0,1,0,0,0,0,0,1,0,0,0,0,0,0,0,0,0,0,0,0,0,0,0,0,0,0,1,0,0,0,0,0,0,0,0,0,0,0,0,0,0],"split_type":[0,0,0,0,0,0,0,0,0,0,0,0,0,0,0,0,0,0,0,0,0,0,0,0,0,0,0,0,0,0,0,0,0,0,0,0,0,0,0,0,0,0,0,0,0,0,0,0,0,0,0,0,0],"sum_hessian":[1.0923E4,6.743E3,4.18E3,8.7E1,6.656E3,2.857E3,1.323E3,8.6E1,1E0,4.3E1,6.613E3,2.95E2,2.562E3,3.41E2,9.82E2,4.3E1,4.3E1,4.2E1,1E0,4.3E1,6.57E3,2.57E2,3.8E1,4.2E1,2.52E3,3.4E2,1E0,4.3E1,9.39E2,4.2E1,1E0,4.1E1,6.529E3,1.66E2,9.1E1,2.005E3,5.15E2,2.98E2,6.41E2,1.71E2,6.358E3,1.28E2,3.8E1,4.8E1,4.3E1,1.792E3,2.13E2,4.5E1,4.7E2,2.55E2,4.3E1,6.4E2,1E0],"tree_param":{"num_deleted":"0","num_feature":"2","num_nodes":"53","size_leaf_vector":"1"}},{"base_weights":[3.0311046E-5,-4.7196215E-3,2.354122E-3,-2.828004E-3,-4.2396486E-2,4.6941314E-2,2.0970944E-3,-4.3808846E-3,1.8819138E-2,1.653035E-2,-4.3141868E-2,1.883279E-3,5.2138142E-2,-2.3863066E-3,-5.5865783E-2,-1.5657384E-2,2.2124671E-3,9.592989E-2,3.255833E-2,-4.505493E-3,4.6823137E-2,-6.276383E-2,7.643204E-2,1.7675757E-2,1.5467238E-3,-3.6363937E-2,4.7871046E-2,-2.697043E-4,-5.46422E-3,-3.447805E-2,-1.0407951E-2,6.285634E-4,1.6631693E-2,-1.6416263E-2,6.6619704E-4,4.8057463E-2,4.9466095E-3],"categories":[],"categories_nodes":[],"categories_segments":[],"categories_sizes":[],"default_left":[0,0,0,0,0,0,0,0,0,0,0,0,0,0,0,0,0,0,0,0,0,0,0,0,0,0,0,0,0,0,0,0,0,0,0,0,0],"id":22,"left_children":[1,3,5,7,-1,9,11,13,-1,-1,-1,15,17,19,21,-1,23,-1,25,27,-1,29,-1,31,33,-1,35,-1,-1,-1,-1,-1,-1,-1,-1,-1,-1],"loss_changes":[1.2058963E-1,9.2699325E-1,8.397313E-2,3.6076432E-1,0E0,7.329567E-2,7.795504E-2,3.5517627E-1,0E0,0E0,0E0,1.2943761E-1,1.5203233E-1,1.1196339E0,2.9241225E-1,0E0,7.432014E-2,0E0,7.6442346E-2,1.6259074E-1,0E0,1.8197256E-1,0E0,1.7521855E-1,2.6272154E-1,0E0,9.605529E-2,0E0,0E0,0E0,0E0,0E0,0E0,0E0,0E0,0E0,0E0],"parents":[2147483647,0,0,1,1,2,2,3,3,5,5,6,6,7,7,11,11,12,12,13,13,14,14,16,16,18,18,19,19,21,21,23,23,24,24,26,26],"right_children":[2,4,6,8,-1,10,12,14,-1,-1,-1,16,18,20,22,-1,24,-1,26,28,-1,30,-1,32,34,-1,36,-1,-1,-1,-1,-1,-1,-1,-1,-1,-1],"split_conditions":[7.4894615E1,7.392542E1,7.5649155E1,7.188266E1,-4.2396486E-2,2E0,2E0,6.908687E1,1.8819138E-2,1.653035E-2,-4.3141868E-2,7.652626E1,7.652626E1,6.7925255E1,2E0,-1.5657384E-2,8.364259E1,9.592989E-2,8.790236E1,5.364108E1,4.6823137E-2,7.0001854E1,7.643204E-2,8.1829124E1,8.547575E1,-3.6363937E-2,1.256266E2,-2.697043E-4,-5.46422E-3,-3.447805E-2,-1.0407951E-2,6.285634E-4,1.6631693E-2,-1.6416263E-2,6.6619704E-4,